<?xml version="1.0"?>
<opencv_storage>
<cascade>
  <stageType>BOOST</stageType>
  <featureType>HAAR</featureType>
  <height>24</height>
  <width>24</width>
  <stageParams>
    <boostType>GAB</boostType>
    <minHitRate>9.9500000476837158e-01</minHitRate>
    <maxFalseAlarm>5.0000000000000000e-01</maxFalseAlarm>
    <weightTrimRate>9.4999998807907104e-01</weightTrimRate>
    <maxDepth>1</maxDepth>
    <maxWeakCount>100</maxWeakCount></stageParams>
  <featureParams>
    <maxCatCount>0</maxCatCount>
    <featSize>1</featSize>
    <mode>BASIC</mode></featureParams>
  <stageNum>15</stageNum>
  <stages>
    <!-- stage 0 -->
    <_>
      <maxWeakCount>5</maxWeakCount>
      <stageThreshold>-1.8161426782608032e+00</stageThreshold>
      <weakClassifiers>
        <_>
          <internalNodes>
            0 -1 57 -8.4781646728515625e-02</internalNodes>
          <leafValues>
            7.1428573131561279e-01 -8.9885497093200684e-01</leafValues></_>
        <_>
          <internalNodes>
            0 -1 324 4.1833999566733837e-03</internalNodes>
          <leafValues>
            -6.5752995014190674e-01 6.4330303668975830e-01</leafValues></_>
        <_>
          <internalNodes>
            0 -1 365 3.6327975976746529e-05</internalNodes>
          <leafValues>
            2.3449178040027618e-01 -9.6204930543899536e-01</leafValues></_>
        <_>
          <internalNodes>
            0 -1 365 -5.5798303947085515e-05</internalNodes>
          <leafValues>
            -7.4714457988739014e-01 3.3941662311553955e-01</leafValues></_>
        <_>
          <internalNodes>
            0 -1 122 1.0068132542073727e-04</internalNodes>
          <leafValues>
            2.5289496779441833e-01 -9.5079916715621948e-01</leafValues></_></weakClassifiers></_>
    <!-- stage 1 -->
    <_>
      <maxWeakCount>4</maxWeakCount>
      <stageThreshold>-1.8960490226745605e+00</stageThreshold>
      <weakClassifiers>
        <_>
          <internalNodes>
            0 -1 166 -3.2213804125785828e-01</internalNodes>
          <leafValues>
            6.2162160873413086e-01 -8.9866155385971069e-01</leafValues></_>
        <_>
          <internalNodes>
            0 -1 365 -5.6930941354949027e-05</internalNodes>
          <leafValues>
            -8.9917564392089844e-01 1.3203936815261841e-01</leafValues></_>
        <_>
          <internalNodes>
            0 -1 94 -2.3489657789468765e-02</internalNodes>
          <leafValues>
            7.9336303472518921e-01 -4.9801170825958252e-01</leafValues></_>
        <_>
          <internalNodes>
            0 -1 122 -9.4509683549404144e-05</internalNodes>
          <leafValues>
            -6.3141518831253052e-01 5.7288968563079834e-01</leafValues></_></weakClassifiers></_>
    <!-- stage 2 -->
    <_>
      <maxWeakCount>6</maxWeakCount>
      <stageThreshold>-1.6695339679718018e+00</stageThreshold>
      <weakClassifiers>
        <_>
          <internalNodes>
            0 -1 172 -4.9230571836233139e-02</internalNodes>
          <leafValues>
            6.1111110448837280e-01 -8.9684814214706421e-01</leafValues></_>
        <_>
          <internalNodes>
            0 -1 347 2.6514351367950439e-02</internalNodes>
          <leafValues>
            -6.8624567985534668e-01 6.0167199373245239e-01</leafValues></_>
        <_>
          <internalNodes>
            0 -1 142 5.1438546506687999e-04</internalNodes>
          <leafValues>
            2.1538236737251282e-01 -9.2418706417083740e-01</leafValues></_>
        <_>
          <internalNodes>
            0 -1 163 -1.3041627244092524e-04</internalNodes>
          <leafValues>
            -7.6106488704681396e-01 4.0184885263442993e-01</leafValues></_>
        <_>
          <internalNodes>
            0 -1 200 1.2191886780783534e-03</internalNodes>
          <leafValues>
            2.5978201627731323e-01 -9.3655496835708618e-01</leafValues></_>
        <_>
          <internalNodes>
            0 -1 199 -2.2442275658249855e-03</internalNodes>
          <leafValues>
            -9.8055797815322876e-01 1.9946040213108063e-01</leafValues></_></weakClassifiers></_>
    <!-- stage 3 -->
    <_>
      <maxWeakCount>5</maxWeakCount>
      <stageThreshold>-1.8352545499801636e+00</stageThreshold>
      <weakClassifiers>
        <_>
          <internalNodes>
            0 -1 138 1.4376634359359741e-01</internalNodes>
          <leafValues>
            -9.0412271022796631e-01 6.4999997615814209e-01</leafValues></_>
        <_>
          <internalNodes>
            0 -1 120 -3.9323918521404266e-02</internalNodes>
          <leafValues>
            6.2820422649383545e-01 -6.9628256559371948e-01</leafValues></_>
        <_>
          <internalNodes>
            0 -1 178 -1.2216813047416508e-04</internalNodes>
          <leafValues>
            -7.5825119018554688e-01 3.8167268037796021e-01</leafValues></_>
        <_>
          <internalNodes>
            0 -1 90 6.4213178120553493e-04</internalNodes>
          <leafValues>
            2.5666868686676025e-01 -9.0438193082809448e-01</leafValues></_>
        <_>
          <internalNodes>
            0 -1 121 6.8043053033761680e-05</internalNodes>
          <leafValues>
            2.6673322916030884e-01 -8.9890092611312866e-01</leafValues></_></weakClassifiers></_>
    <!-- stage 4 -->
    <_>
      <maxWeakCount>5</maxWeakCount>
      <stageThreshold>-1.9277554750442505e+00</stageThreshold>
      <weakClassifiers>
        <_>
          <internalNodes>
            0 -1 207 -3.0254027247428894e-01</internalNodes>
          <leafValues>
            9.3103450536727905e-01 -8.9563566446304321e-01</leafValues></_>
        <_>
          <internalNodes>
            0 -1 121 -8.3940023614559323e-05</internalNodes>
          <leafValues>
            -8.9517956972122192e-01 7.7978707849979401e-02</leafValues></_>
        <_>
          <internalNodes>
            0 -1 251 -1.0059875785373151e-04</internalNodes>
          <leafValues>
            -9.4948053359985352e-01 2.6344221830368042e-01</leafValues></_>
        <_>
          <internalNodes>
            0 -1 40 -5.8220915496349335e-02</internalNodes>
          <leafValues>
            6.6094154119491577e-01 -4.7369962930679321e-01</leafValues></_>
        <_>
          <internalNodes>
            0 -1 141 2.3915054043754935e-04</internalNodes>
          <leafValues>
            3.1308171153068542e-01 -9.0893572568893433e-01</leafValues></_></weakClassifiers></_>
    <!-- stage 5 -->
    <_>
      <maxWeakCount>3</maxWeakCount>
      <stageThreshold>-1.3585635423660278e+00</stageThreshold>
      <weakClassifiers>
        <_>
          <internalNodes>
            0 -1 273 -6.9515347480773926e-02</internalNodes>
          <leafValues>
            3.3333334326744080e-01 -9.0503877401351929e-01</leafValues></_>
        <_>
          <internalNodes>
            0 -1 141 -4.1059227078221738e-04</internalNodes>
          <leafValues>
            -9.3212759494781494e-01 -4.6113770455121994e-02</leafValues></_>
        <_>
          <internalNodes>
            0 -1 160 1.0803182423114777e-01</internalNodes>
          <leafValues>
            -4.0741100907325745e-01 9.3180173635482788e-01</leafValues></_></weakClassifiers></_>
    <!-- stage 6 -->
    <_>
      <maxWeakCount>6</maxWeakCount>
      <stageThreshold>-2.0963726043701172e+00</stageThreshold>
      <weakClassifiers>
        <_>
          <internalNodes>
            0 -1 236 -3.1129062175750732e-01</internalNodes>
          <leafValues>
            6.5517240762710571e-01 -8.8804554939270020e-01</leafValues></_>
        <_>
          <internalNodes>
            0 -1 140 6.3413470983505249e-02</internalNodes>
          <leafValues>
            -5.7931035757064819e-01 9.1216158866882324e-01</leafValues></_>
        <_>
          <internalNodes>
            0 -1 77 9.9205616861581802e-03</internalNodes>
          <leafValues>
            -3.7072134017944336e-01 5.7867306470870972e-01</leafValues></_>
        <_>
          <internalNodes>
            0 -1 15 -2.8277509845793247e-03</internalNodes>
          <leafValues>
            -8.3084619045257568e-01 2.7930295467376709e-01</leafValues></_>
        <_>
          <internalNodes>
            0 -1 148 6.8008390371687710e-05</internalNodes>
          <leafValues>
            2.3908318579196930e-01 -6.9166892766952515e-01</leafValues></_>
        <_>
          <internalNodes>
            0 -1 115 -5.2500702440738678e-02</internalNodes>
          <leafValues>
            -9.6994799375534058e-01 1.5407066047191620e-01</leafValues></_></weakClassifiers></_>
    <!-- stage 7 -->
    <_>
      <maxWeakCount>100</maxWeakCount>
      <stageThreshold>-3.2488620281219482e+00</stageThreshold>
      <weakClassifiers>
        <_>
          <internalNodes>
            0 -1 290 -9.8501272499561310e-02</internalNodes>
          <leafValues>
            4.2372882366180420e-01 -9.1992187500000000e-01</leafValues></_>
        <_>
          <internalNodes>
            0 -1 314 -3.6589361116057262e-05</internalNodes>
          <leafValues>
            4.5632663369178772e-01 -8.2246762514114380e-01</leafValues></_>
        <_>
          <internalNodes>
            0 -1 267 -1.6178626538021490e-05</internalNodes>
          <leafValues>
            5.8825975656509399e-01 -6.2438523769378662e-01</leafValues></_>
        <_>
          <internalNodes>
            0 -1 279 -5.1218350563431159e-05</internalNodes>
          <leafValues>
            5.8956313133239746e-01 -4.5082134008407593e-01</leafValues></_>
        <_>
          <internalNodes>
            0 -1 168 2.1883297711610794e-02</internalNodes>
          <leafValues>
            -2.1230365335941315e-01 8.4419089555740356e-01</leafValues></_>
        <_>
          <internalNodes>
            0 -1 179 5.3051678696647286e-04</internalNodes>
          <leafValues>
            3.3326089382171631e-01 -6.8857562541961670e-01</leafValues></_>
        <_>
          <internalNodes>
            0 -1 205 3.0857413075864315e-03</internalNodes>
          <leafValues>
            -4.1138884425163269e-01 6.1022633314132690e-01</leafValues></_>
        <_>
          <internalNodes>
            0 -1 157 6.2166504561901093e-02</internalNodes>
          <leafValues>
            -1.4999479055404663e-01 9.1274547576904297e-01</leafValues></_>
        <_>
          <internalNodes>
            0 -1 143 4.5340211363509297e-04</internalNodes>
          <leafValues>
            2.0922224223613739e-01 -8.9772260189056396e-01</leafValues></_>
        <_>
          <internalNodes>
            0 -1 322 3.4843450412154198e-03</internalNodes>
          <leafValues>
            -2.0455709099769592e-01 8.4350317716598511e-01</leafValues></_>
        <_>
          <internalNodes>
            0 -1 385 1.3748859055340290e-02</internalNodes>
          <leafValues>
            1.6611851751804352e-01 -8.9392846822738647e-01</leafValues></_>
        <_>
          <internalNodes>
            0 -1 170 -2.9532792046666145e-02</internalNodes>
          <leafValues>
            7.2728097438812256e-01 -1.7440320551395416e-01</leafValues></_>
        <_>
          <internalNodes>
            0 -1 78 -4.0899176150560379e-02</internalNodes>
          <leafValues>
            -9.1175460815429688e-01 1.4031340181827545e-01</leafValues></_>
        <_>
          <internalNodes>
            0 -1 306 3.0206838346202858e-05</internalNodes>
          <leafValues>
            -1.8461380898952484e-01 5.9468680620193481e-01</leafValues></_>
        <_>
          <internalNodes>
            0 -1 176 1.1656498536467552e-03</internalNodes>
          <leafValues>
            1.2379609793424606e-01 -9.0610456466674805e-01</leafValues></_>
        <_>
          <internalNodes>
            0 -1 159 -2.3774642497301102e-02</internalNodes>
          <leafValues>
            9.0834218263626099e-01 -1.1115764826536179e-01</leafValues></_>
        <_>
          <internalNodes>
            0 -1 174 1.8348161131143570e-02</internalNodes>
          <leafValues>
            -6.5603055059909821e-02 9.2211586236953735e-01</leafValues></_>
        <_>
          <internalNodes>
            0 -1 145 -4.2169950902462006e-03</internalNodes>
          <leafValues>
            -6.5934252738952637e-01 1.4018967747688293e-01</leafValues></_>
        <_>
          <internalNodes>
            0 -1 154 2.1890622520004399e-05</internalNodes>
          <leafValues>
            -1.0803082585334778e-01 6.4175117015838623e-01</leafValues></_>
        <_>
          <internalNodes>
            0 -1 18 9.5088154077529907e-02</internalNodes>
          <leafValues>
            1.0165685415267944e-01 -7.8001511096954346e-01</leafValues></_>
        <_>
          <internalNodes>
            0 -1 209 3.4340776503086090e-02</internalNodes>
          <leafValues>
            -6.0839843004941940e-02 9.6557050943374634e-01</leafValues></_>
        <_>
          <internalNodes>
            0 -1 1 2.6498802006244659e-02</internalNodes>
          <leafValues>
            6.6649116575717926e-02 -8.3456045389175415e-01</leafValues></_>
        <_>
          <internalNodes>
            0 -1 203 -3.3486656844615936e-02</internalNodes>
          <leafValues>
            8.0461406707763672e-01 -6.5353572368621826e-02</leafValues></_>
        <_>
          <internalNodes>
            0 -1 22 -1.2586987577378750e-02</internalNodes>
          <leafValues>
            -9.0856969356536865e-01 5.4836258292198181e-02</leafValues></_>
        <_>
          <internalNodes>
            0 -1 64 4.4718421995639801e-02</internalNodes>
          <leafValues>
            -4.7426462173461914e-02 9.6493715047836304e-01</leafValues></_>
        <_>
          <internalNodes>
            0 -1 250 8.5169970989227295e-03</internalNodes>
          <leafValues>
            4.2833548039197922e-02 -1.</leafValues></_>
        <_>
          <internalNodes>
            0 -1 59 -4.9473352730274200e-02</internalNodes>
          <leafValues>
            8.8376617431640625e-01 -4.4865254312753677e-02</leafValues></_>
        <_>
          <internalNodes>
            0 -1 384 1.5863205771893263e-03</internalNodes>
          <leafValues>
            3.2862588763237000e-02 -9.1690957546234131e-01</leafValues></_>
        <_>
          <internalNodes>
            0 -1 125 -9.5311016775667667e-04</internalNodes>
          <leafValues>
            7.2286969423294067e-01 -3.8757584989070892e-02</leafValues></_>
        <_>
          <internalNodes>
            0 -1 17 4.3393924832344055e-02</internalNodes>
          <leafValues>
            2.2326856851577759e-02 -8.5746824741363525e-01</leafValues></_>
        <_>
          <internalNodes>
            0 -1 17 -7.1422517299652100e-02</internalNodes>
          <leafValues>
            -7.6428991556167603e-01 3.6960158497095108e-02</leafValues></_>
        <_>
          <internalNodes>
            0 -1 162 -2.0719169697258621e-05</internalNodes>
          <leafValues>
            9.2617595195770264e-01 -3.1236611306667328e-02</leafValues></_>
        <_>
          <internalNodes>
            0 -1 287 -2.8225773712620139e-04</internalNodes>
          <leafValues>
            -9.0724283456802368e-01 1.0962941683828831e-02</leafValues></_>
        <_>
          <internalNodes>
            0 -1 201 -2.5301338173449039e-03</internalNodes>
          <leafValues>
            7.5199878215789795e-01 -1.6395814716815948e-02</leafValues></_>
        <_>
          <internalNodes>
            0 -1 95 -2.5873109698295593e-03</internalNodes>
          <leafValues>
            -9.1246885061264038e-01 1.4012601226568222e-02</leafValues></_>
        <_>
          <internalNodes>
            0 -1 58 -6.3116024248301983e-03</internalNodes>
          <leafValues>
            1. -3.4375609830021858e-03</leafValues></_>
        <_>
          <internalNodes>
            0 -1 56 6.8589728325605392e-03</internalNodes>
          <leafValues>
            1.8204239895567298e-03 -1.</leafValues></_>
        <_>
          <internalNodes>
            0 -1 50 7.3209078982472420e-03</internalNodes>
          <leafValues>
            -1.6529668355360627e-03 1.</leafValues></_>
        <_>
          <internalNodes>
            0 -1 68 -8.1780750770121813e-04</internalNodes>
          <leafValues>
            -9.3571656942367554e-01 4.1216379031538963e-03</leafValues></_>
        <_>
          <internalNodes>
            0 -1 10 -2.6483803987503052e-02</internalNodes>
          <leafValues>
            1. -7.7567208791151643e-04</leafValues></_>
        <_>
          <internalNodes>
            0 -1 23 -1.5066677005961537e-03</internalNodes>
          <leafValues>
            -9.6185827255249023e-01 5.8603240177035332e-03</leafValues></_>
        <_>
          <internalNodes>
            0 -1 296 6.4164887589868158e-05</internalNodes>
          <leafValues>
            -5.6934594176709652e-03 8.9137148857116699e-01</leafValues></_>
        <_>
          <internalNodes>
            0 -1 288 3.8587935268878937e-03</internalNodes>
          <leafValues>
            1.1725932126864791e-03 -9.3183541297912598e-01</leafValues></_>
        <_>
          <internalNodes>
            0 -1 286 -1.2707927089650184e-04</internalNodes>
          <leafValues>
            1. -2.4447396863251925e-03</leafValues></_>
        <_>
          <internalNodes>
            0 -1 80 3.3808121224865317e-04</internalNodes>
          <leafValues>
            -1.4756284654140472e-03 -1.</leafValues></_>
        <_>
          <internalNodes>
            0 -1 300 1.8974150298163295e-03</internalNodes>
          <leafValues>
            -1.6016432782635093e-03 1.</leafValues></_>
        <_>
          <internalNodes>
            0 -1 291 1.0961589869111776e-03</internalNodes>
          <leafValues>
            5.6092464365065098e-03 -1.</leafValues></_>
        <_>
          <internalNodes>
            0 -1 291 1.6857519221957773e-04</internalNodes>
          <leafValues>
            -6.2699767295271158e-04 1.</leafValues></_>
        <_>
          <internalNodes>
            0 -1 291 9.2758383834734559e-04</internalNodes>
          <leafValues>
            5.1941553829237819e-04 -1.</leafValues></_>
        <_>
          <internalNodes>
            0 -1 180 8.4450941358227283e-05</internalNodes>
          <leafValues>
            -1.1318001197651029e-03 1.</leafValues></_>
        <_>
          <internalNodes>
            0 -1 180 1.7630269285291433e-03</internalNodes>
          <leafValues>
            -1.9380649973754771e-05 -1.</leafValues></_>
        <_>
          <internalNodes>
            0 -1 180 9.0219714911654592e-04</internalNodes>
          <leafValues>
            -5.8352370979264379e-04 1.</leafValues></_>
        <_>
          <internalNodes>
            0 -1 180 1.7630269285291433e-03</internalNodes>
          <leafValues>
            5.8352365158498287e-04 -1.</leafValues></_>
        <_>
          <internalNodes>
            0 -1 180 9.0219714911654592e-04</internalNodes>
          <leafValues>
            -5.8352365158498287e-04 1.</leafValues></_>
        <_>
          <internalNodes>
            0 -1 180 1.7630269285291433e-03</internalNodes>
          <leafValues>
            5.8352365158498287e-04 -1.</leafValues></_>
        <_>
          <internalNodes>
            0 -1 180 9.0219714911654592e-04</internalNodes>
          <leafValues>
            -5.8352365158498287e-04 1.</leafValues></_>
        <_>
          <internalNodes>
            0 -1 180 1.7630269285291433e-03</internalNodes>
          <leafValues>
            5.8352365158498287e-04 -1.</leafValues></_>
        <_>
          <internalNodes>
            0 -1 180 9.0219714911654592e-04</internalNodes>
          <leafValues>
            -5.8352365158498287e-04 1.</leafValues></_>
        <_>
          <internalNodes>
            0 -1 180 7.1089097764343023e-04</internalNodes>
          <leafValues>
            5.8352365158498287e-04 -1.</leafValues></_>
        <_>
          <internalNodes>
            0 -1 180 9.0219714911654592e-04</internalNodes>
          <leafValues>
            -5.8352365158498287e-04 1.</leafValues></_>
        <_>
          <internalNodes>
            0 -1 180 7.1089097764343023e-04</internalNodes>
          <leafValues>
            5.8352365158498287e-04 -1.</leafValues></_>
        <_>
          <internalNodes>
            0 -1 180 9.0219714911654592e-04</internalNodes>
          <leafValues>
            -5.8352365158498287e-04 1.</leafValues></_>
        <_>
          <internalNodes>
            0 -1 180 7.1089097764343023e-04</internalNodes>
          <leafValues>
            5.8352365158498287e-04 -1.</leafValues></_>
        <_>
          <internalNodes>
            0 -1 180 9.0219714911654592e-04</internalNodes>
          <leafValues>
            -5.8352365158498287e-04 1.</leafValues></_>
        <_>
          <internalNodes>
            0 -1 180 7.1089097764343023e-04</internalNodes>
          <leafValues>
            5.8352365158498287e-04 -1.</leafValues></_>
        <_>
          <internalNodes>
            0 -1 180 9.0219714911654592e-04</internalNodes>
          <leafValues>
            -5.8352365158498287e-04 1.</leafValues></_>
        <_>
          <internalNodes>
            0 -1 180 7.1089097764343023e-04</internalNodes>
          <leafValues>
            5.8352365158498287e-04 -1.</leafValues></_>
        <_>
          <internalNodes>
            0 -1 180 9.0219714911654592e-04</internalNodes>
          <leafValues>
            -5.8352365158498287e-04 1.</leafValues></_>
        <_>
          <internalNodes>
            0 -1 180 7.1089097764343023e-04</internalNodes>
          <leafValues>
            5.8352365158498287e-04 -1.</leafValues></_>
        <_>
          <internalNodes>
            0 -1 180 9.0219714911654592e-04</internalNodes>
          <leafValues>
            -5.8352365158498287e-04 1.</leafValues></_>
        <_>
          <internalNodes>
            0 -1 180 7.1089097764343023e-04</internalNodes>
          <leafValues>
            5.8352365158498287e-04 -1.</leafValues></_>
        <_>
          <internalNodes>
            0 -1 180 9.0219714911654592e-04</internalNodes>
          <leafValues>
            -5.8352365158498287e-04 1.</leafValues></_>
        <_>
          <internalNodes>
            0 -1 180 7.1089097764343023e-04</internalNodes>
          <leafValues>
            5.8352365158498287e-04 -1.</leafValues></_>
        <_>
          <internalNodes>
            0 -1 180 9.0219714911654592e-04</internalNodes>
          <leafValues>
            -5.8352365158498287e-04 1.</leafValues></_>
        <_>
          <internalNodes>
            0 -1 180 7.1089097764343023e-04</internalNodes>
          <leafValues>
            5.8352365158498287e-04 -1.</leafValues></_>
        <_>
          <internalNodes>
            0 -1 180 9.0219714911654592e-04</internalNodes>
          <leafValues>
            -5.8352365158498287e-04 1.</leafValues></_>
        <_>
          <internalNodes>
            0 -1 180 7.1089097764343023e-04</internalNodes>
          <leafValues>
            5.8352365158498287e-04 -1.</leafValues></_>
        <_>
          <internalNodes>
            0 -1 180 9.0219714911654592e-04</internalNodes>
          <leafValues>
            -5.8352365158498287e-04 1.</leafValues></_>
        <_>
          <internalNodes>
            0 -1 180 7.1089097764343023e-04</internalNodes>
          <leafValues>
            5.8352365158498287e-04 -1.</leafValues></_>
        <_>
          <internalNodes>
            0 -1 180 9.0219714911654592e-04</internalNodes>
          <leafValues>
            -5.8352365158498287e-04 1.</leafValues></_>
        <_>
          <internalNodes>
            0 -1 180 7.1089097764343023e-04</internalNodes>
          <leafValues>
            5.8352365158498287e-04 -1.</leafValues></_>
        <_>
          <internalNodes>
            0 -1 180 9.0219714911654592e-04</internalNodes>
          <leafValues>
            -5.8352365158498287e-04 1.</leafValues></_>
        <_>
          <internalNodes>
            0 -1 180 7.1089097764343023e-04</internalNodes>
          <leafValues>
            5.8352365158498287e-04 -1.</leafValues></_>
        <_>
          <internalNodes>
            0 -1 180 9.0219714911654592e-04</internalNodes>
          <leafValues>
            -5.8352365158498287e-04 1.</leafValues></_>
        <_>
          <internalNodes>
            0 -1 180 7.1089097764343023e-04</internalNodes>
          <leafValues>
            5.8352365158498287e-04 -1.</leafValues></_>
        <_>
          <internalNodes>
            0 -1 180 9.0219714911654592e-04</internalNodes>
          <leafValues>
            -5.8352365158498287e-04 1.</leafValues></_>
        <_>
          <internalNodes>
            0 -1 180 7.1089097764343023e-04</internalNodes>
          <leafValues>
            5.8352365158498287e-04 -1.</leafValues></_>
        <_>
          <internalNodes>
            0 -1 180 9.0219714911654592e-04</internalNodes>
          <leafValues>
            -5.8352365158498287e-04 1.</leafValues></_>
        <_>
          <internalNodes>
            0 -1 180 7.1089097764343023e-04</internalNodes>
          <leafValues>
            5.8352365158498287e-04 -1.</leafValues></_>
        <_>
          <internalNodes>
            0 -1 180 9.0219714911654592e-04</internalNodes>
          <leafValues>
            -5.8352365158498287e-04 1.</leafValues></_>
        <_>
          <internalNodes>
            0 -1 180 7.1089097764343023e-04</internalNodes>
          <leafValues>
            5.8352365158498287e-04 -1.</leafValues></_>
        <_>
          <internalNodes>
            0 -1 180 9.0219714911654592e-04</internalNodes>
          <leafValues>
            -5.8352365158498287e-04 1.</leafValues></_>
        <_>
          <internalNodes>
            0 -1 180 7.1089097764343023e-04</internalNodes>
          <leafValues>
            5.8352365158498287e-04 -1.</leafValues></_>
        <_>
          <internalNodes>
            0 -1 180 9.0219714911654592e-04</internalNodes>
          <leafValues>
            -5.8352365158498287e-04 1.</leafValues></_>
        <_>
          <internalNodes>
            0 -1 180 7.1089097764343023e-04</internalNodes>
          <leafValues>
            5.8352365158498287e-04 -1.</leafValues></_>
        <_>
          <internalNodes>
            0 -1 180 9.0219714911654592e-04</internalNodes>
          <leafValues>
            -5.8352365158498287e-04 1.</leafValues></_>
        <_>
          <internalNodes>
            0 -1 180 7.1089097764343023e-04</internalNodes>
          <leafValues>
            5.8352365158498287e-04 -1.</leafValues></_>
        <_>
          <internalNodes>
            0 -1 180 9.0219714911654592e-04</internalNodes>
          <leafValues>
            -5.8352365158498287e-04 1.</leafValues></_>
        <_>
          <internalNodes>
            0 -1 180 7.1089097764343023e-04</internalNodes>
          <leafValues>
            5.8352365158498287e-04 -1.</leafValues></_>
        <_>
          <internalNodes>
            0 -1 180 9.0219714911654592e-04</internalNodes>
          <leafValues>
            -5.8352365158498287e-04 1.</leafValues></_></weakClassifiers></_>
    <!-- stage 8 -->
    <_>
      <maxWeakCount>13</maxWeakCount>
      <stageThreshold>-2.4564514160156250e+00</stageThreshold>
      <weakClassifiers>
        <_>
          <internalNodes>
            0 -1 41 -1.0169025510549545e-01</internalNodes>
          <leafValues>
            4.8717948794364929e-01 -8.9655172824859619e-01</leafValues></_>
        <_>
          <internalNodes>
            0 -1 355 -1.9692175090312958e-02</internalNodes>
          <leafValues>
            5.2934044599533081e-01 -6.2414675951004028e-01</leafValues></_>
        <_>
          <internalNodes>
            0 -1 202 -3.2367659732699394e-03</internalNodes>
          <leafValues>
            3.5995551943778992e-01 -5.9952425956726074e-01</leafValues></_>
        <_>
          <internalNodes>
            0 -1 109 1.8541517853736877e-01</internalNodes>
          <leafValues>
            -2.2048695385456085e-01 8.1860864162445068e-01</leafValues></_>
        <_>
          <internalNodes>
            0 -1 87 3.5263615427538753e-04</internalNodes>
          <leafValues>
            2.4141095578670502e-01 -7.8990030288696289e-01</leafValues></_>
        <_>
          <internalNodes>
            0 -1 182 3.5724719054996967e-03</internalNodes>
          <leafValues>
            -3.3798527717590332e-01 4.4852221012115479e-01</leafValues></_>
        <_>
          <internalNodes>
            0 -1 26 5.0287563353776932e-03</internalNodes>
          <leafValues>
            2.5236374139785767e-01 -6.9582188129425049e-01</leafValues></_>
        <_>
          <internalNodes>
            0 -1 198 9.0091431047767401e-04</internalNodes>
          <leafValues>
            1.6592679917812347e-01 -9.0110087394714355e-01</leafValues></_>
        <_>
          <internalNodes>
            0 -1 358 6.0328957624733448e-03</internalNodes>
          <leafValues>
            -3.2893392443656921e-01 5.5852049589157104e-01</leafValues></_>
        <_>
          <internalNodes>
            0 -1 366 2.4864468723535538e-02</internalNodes>
          <leafValues>
            -2.3948484659194946e-01 6.1732220649719238e-01</leafValues></_>
        <_>
          <internalNodes>
            0 -1 333 1.7068139277398586e-04</internalNodes>
          <leafValues>
            2.0221644639968872e-01 -8.4848034381866455e-01</leafValues></_>
        <_>
          <internalNodes>
            0 -1 245 6.8849441595375538e-04</internalNodes>
          <leafValues>
            -2.5269746780395508e-01 5.9656298160552979e-01</leafValues></_>
        <_>
          <internalNodes>
            0 -1 25 3.2340377569198608e-02</internalNodes>
          <leafValues>
            1.8144185841083527e-01 -8.2924699783325195e-01</leafValues></_></weakClassifiers></_>
    <!-- stage 9 -->
    <_>
      <maxWeakCount>100</maxWeakCount>
      <stageThreshold>-3.2435982227325439e+00</stageThreshold>
      <weakClassifiers>
        <_>
          <internalNodes>
            0 -1 215 -5.3908780217170715e-02</internalNodes>
          <leafValues>
            5.0000000000000000e-01 -9.0375363826751709e-01</leafValues></_>
        <_>
          <internalNodes>
            0 -1 3 -2.0629864186048508e-02</internalNodes>
          <leafValues>
            4.9611470103263855e-01 -7.4586474895477295e-01</leafValues></_>
        <_>
          <internalNodes>
            0 -1 169 7.5037730857729912e-04</internalNodes>
          <leafValues>
            -5.6839460134506226e-01 6.3051944971084595e-01</leafValues></_>
        <_>
          <internalNodes>
            0 -1 225 9.2287637293338776e-02</internalNodes>
          <leafValues>
            -3.3122301101684570e-01 8.1290936470031738e-01</leafValues></_>
        <_>
          <internalNodes>
            0 -1 353 2.4860468693077564e-03</internalNodes>
          <leafValues>
            -2.2502352297306061e-01 7.4854230880737305e-01</leafValues></_>
        <_>
          <internalNodes>
            0 -1 354 -2.4149236269295216e-03</internalNodes>
          <leafValues>
            7.1881514787673950e-01 -2.0977252721786499e-01</leafValues></_>
        <_>
          <internalNodes>
            0 -1 61 -1.3247480988502502e-01</internalNodes>
          <leafValues>
            9.0615373849868774e-01 -1.2622478604316711e-01</leafValues></_>
        <_>
          <internalNodes>
            0 -1 190 6.5096537582576275e-05</internalNodes>
          <leafValues>
            -2.1897849440574646e-01 5.7907855510711670e-01</leafValues></_>
        <_>
          <internalNodes>
            0 -1 253 7.4411497917026281e-04</internalNodes>
          <leafValues>
            2.0868957042694092e-01 -7.6648962497711182e-01</leafValues></_>
        <_>
          <internalNodes>
            0 -1 164 3.0819686129689217e-02</internalNodes>
          <leafValues>
            -2.6924237608909607e-01 4.8059907555580139e-01</leafValues></_>
        <_>
          <internalNodes>
            0 -1 119 -2.0195640623569489e-02</internalNodes>
          <leafValues>
            -8.0108147859573364e-01 1.7263612151145935e-01</leafValues></_>
        <_>
          <internalNodes>
            0 -1 196 1.2914247810840607e-02</internalNodes>
          <leafValues>
            1.4224177598953247e-01 -7.3325490951538086e-01</leafValues></_>
        <_>
          <internalNodes>
            0 -1 327 -1.2208080152049661e-03</internalNodes>
          <leafValues>
            6.9623076915740967e-01 -1.8494392931461334e-01</leafValues></_>
        <_>
          <internalNodes>
            0 -1 388 6.7108431831002235e-03</internalNodes>
          <leafValues>
            1.2965260446071625e-01 -9.4411987066268921e-01</leafValues></_>
        <_>
          <internalNodes>
            0 -1 104 2.9548533260822296e-02</internalNodes>
          <leafValues>
            -1.9433477520942688e-01 6.4579349756240845e-01</leafValues></_>
        <_>
          <internalNodes>
            0 -1 351 -1.3393965363502502e-01</internalNodes>
          <leafValues>
            -8.9541137218475342e-01 1.1511418968439102e-01</leafValues></_>
        <_>
          <internalNodes>
            0 -1 262 -1.1661348864436150e-02</internalNodes>
          <leafValues>
            -8.2594650983810425e-01 9.3560770153999329e-02</leafValues></_>
        <_>
          <internalNodes>
            0 -1 249 2.0861261873506010e-05</internalNodes>
          <leafValues>
            -1.5207335352897644e-01 6.6795635223388672e-01</leafValues></_>
        <_>
          <internalNodes>
            0 -1 20 -1.0654857615008950e-03</internalNodes>
          <leafValues>
            -8.5046178102493286e-01 9.9428027868270874e-02</leafValues></_>
        <_>
          <internalNodes>
            0 -1 84 4.7096595168113708e-02</internalNodes>
          <leafValues>
            -1.0744652152061462e-01 8.5341691970825195e-01</leafValues></_>
        <_>
          <internalNodes>
            0 -1 88 1.7815280705690384e-02</internalNodes>
          <leafValues>
            1.2126998603343964e-01 -7.4592399597167969e-01</leafValues></_>
        <_>
          <internalNodes>
            0 -1 231 -8.2076119724661112e-04</internalNodes>
          <leafValues>
            5.7876962423324585e-01 -1.2258658558130264e-01</leafValues></_>
        <_>
          <internalNodes>
            0 -1 222 1.0375140234827995e-02</internalNodes>
          <leafValues>
            7.4441350996494293e-02 -8.0043292045593262e-01</leafValues></_>
        <_>
          <internalNodes>
            0 -1 99 3.5545147955417633e-02</internalNodes>
          <leafValues>
            -6.2343988567590714e-02 9.7727328538894653e-01</leafValues></_>
        <_>
          <internalNodes>
            0 -1 127 -2.1536786109209061e-02</internalNodes>
          <leafValues>
            -1. 6.8803757429122925e-02</leafValues></_>
        <_>
          <internalNodes>
            0 -1 83 4.8300974071025848e-02</internalNodes>
          <leafValues>
            -7.2314813733100891e-02 8.1298458576202393e-01</leafValues></_>
        <_>
          <internalNodes>
            0 -1 36 1.3269838690757751e-01</internalNodes>
          <leafValues>
            5.2647300064563751e-02 -1.</leafValues></_>
        <_>
          <internalNodes>
            0 -1 346 3.4769595367833972e-04</internalNodes>
          <leafValues>
            -7.1846209466457367e-02 7.3178064823150635e-01</leafValues></_>
        <_>
          <internalNodes>
            0 -1 363 -4.5665064826607704e-03</internalNodes>
          <leafValues>
            -7.8996652364730835e-01 6.2968768179416656e-02</leafValues></_>
        <_>
          <internalNodes>
            0 -1 334 1.6450940165668726e-03</internalNodes>
          <leafValues>
            2.6128994300961494e-02 -9.0851527452468872e-01</leafValues></_>
        <_>
          <internalNodes>
            0 -1 258 8.4382714703679085e-04</internalNodes>
          <leafValues>
            -6.0254313051700592e-02 7.2517061233520508e-01</leafValues></_>
        <_>
          <internalNodes>
            0 -1 70 3.4675408154726028e-02</internalNodes>
          <leafValues>
            3.9706997573375702e-02 -8.5313946008682251e-01</leafValues></_>
        <_>
          <internalNodes>
            0 -1 213 -5.0579756498336792e-03</internalNodes>
          <leafValues>
            7.2531735897064209e-01 -4.2554438114166260e-02</leafValues></_>
        <_>
          <internalNodes>
            0 -1 123 -3.8376339944079518e-04</internalNodes>
          <leafValues>
            -8.1702727079391479e-01 3.8691941648721695e-02</leafValues></_>
        <_>
          <internalNodes>
            0 -1 319 -1.5282881213352084e-04</internalNodes>
          <leafValues>
            7.1359819173812866e-01 -3.1723711639642715e-02</leafValues></_>
        <_>
          <internalNodes>
            0 -1 66 1.3847481459379196e-02</internalNodes>
          <leafValues>
            1.9407475367188454e-02 -9.6187311410903931e-01</leafValues></_>
        <_>
          <internalNodes>
            0 -1 263 -6.8864664062857628e-03</internalNodes>
          <leafValues>
            9.1079986095428467e-01 -2.9521539807319641e-02</leafValues></_>
        <_>
          <internalNodes>
            0 -1 210 4.1764886118471622e-03</internalNodes>
          <leafValues>
            2.7364309877157211e-02 -9.0258485078811646e-01</leafValues></_>
        <_>
          <internalNodes>
            0 -1 204 -1.5311113093048334e-03</internalNodes>
          <leafValues>
            7.9074734449386597e-01 -2.3613121360540390e-02</leafValues></_>
        <_>
          <internalNodes>
            0 -1 289 -1.8035525863524526e-04</internalNodes>
          <leafValues>
            -8.6088287830352783e-01 1.5836542472243309e-02</leafValues></_>
        <_>
          <internalNodes>
            0 -1 232 -3.7494592368602753e-02</internalNodes>
          <leafValues>
            -9.3783903121948242e-01 2.7015121653676033e-02</leafValues></_>
        <_>
          <internalNodes>
            0 -1 161 9.0254667156841606e-05</internalNodes>
          <leafValues>
            -2.4701137095689774e-02 9.1614997386932373e-01</leafValues></_>
        <_>
          <internalNodes>
            0 -1 16 1.4598658308386803e-02</internalNodes>
          <leafValues>
            1.1714675463736057e-02 -8.9175134897232056e-01</leafValues></_>
        <_>
          <internalNodes>
            0 -1 129 9.1997971758246422e-03</internalNodes>
          <leafValues>
            -1.3583933003246784e-02 9.2004132270812988e-01</leafValues></_>
        <_>
          <internalNodes>
            0 -1 151 2.5173241738229990e-03</internalNodes>
          <leafValues>
            5.8750733733177185e-03 -9.4264435768127441e-01</leafValues></_>
        <_>
          <internalNodes>
            0 -1 150 2.5280062109231949e-03</internalNodes>
          <leafValues>
            -3.4002675674855709e-03 9.5737719535827637e-01</leafValues></_>
        <_>
          <internalNodes>
            0 -1 131 2.2157533385325223e-04</internalNodes>
          <leafValues>
            1.0848707752302289e-03 -9.7081309556961060e-01</leafValues></_>
        <_>
          <internalNodes>
            0 -1 187 3.4642955870367587e-04</internalNodes>
          <leafValues>
            -3.3014970831573009e-03 9.5174425840377808e-01</leafValues></_>
        <_>
          <internalNodes>
            0 -1 234 3.4146156394854188e-04</internalNodes>
          <leafValues>
            4.4926758855581284e-03 -9.2995178699493408e-01</leafValues></_>
        <_>
          <internalNodes>
            0 -1 128 8.8511426001787186e-03</internalNodes>
          <leafValues>
            -3.6383762490004301e-03 9.5574563741683960e-01</leafValues></_>
        <_>
          <internalNodes>
            0 -1 130 5.0790421664714813e-03</internalNodes>
          <leafValues>
            2.8049515094608068e-03 -9.3003118038177490e-01</leafValues></_>
        <_>
          <internalNodes>
            0 -1 89 1.1182577582076192e-03</internalNodes>
          <leafValues>
            -6.9985886511858553e-05 1.</leafValues></_>
        <_>
          <internalNodes>
            0 -1 147 7.4496871093288064e-04</internalNodes>
          <leafValues>
            -7.5183146464041783e-07 -9.3741261959075928e-01</leafValues></_>
        <_>
          <internalNodes>
            0 -1 184 2.1144787024240941e-04</internalNodes>
          <leafValues>
            4.8457790398970246e-04 1.</leafValues></_>
        <_>
          <internalNodes>
            0 -1 233 7.5580802513286471e-04</internalNodes>
          <leafValues>
            5.0333997933194041e-04 -9.4060683250427246e-01</leafValues></_>
        <_>
          <internalNodes>
            0 -1 239 5.4191688832361251e-05</internalNodes>
          <leafValues>
            4.4369604438543320e-04 9.5183163881301880e-01</leafValues></_>
        <_>
          <internalNodes>
            0 -1 239 8.7249129137489945e-05</internalNodes>
          <leafValues>
            -1.2735406926367432e-04 -9.3784928321838379e-01</leafValues></_>
        <_>
          <internalNodes>
            0 -1 239 5.4191688832361251e-05</internalNodes>
          <leafValues>
            1.2735409836750478e-04 9.0377694368362427e-01</leafValues></_>
        <_>
          <internalNodes>
            0 -1 153 2.5452382033108734e-05</internalNodes>
          <leafValues>
            1.4640376321040094e-04 -9.0669453144073486e-01</leafValues></_>
        <_>
          <internalNodes>
            0 -1 132 2.8108563856221735e-04</internalNodes>
          <leafValues>
            -6.2738097039982677e-04 1.</leafValues></_>
        <_>
          <internalNodes>
            0 -1 206 -1.2158687459304929e-03</internalNodes>
          <leafValues>
            -1. 6.6545460140332580e-04</leafValues></_>
        <_>
          <internalNodes>
            0 -1 192 -8.3679647650569677e-04</internalNodes>
          <leafValues>
            1. -5.4908259771764278e-03</leafValues></_>
        <_>
          <internalNodes>
            0 -1 192 -3.6062978324480355e-05</internalNodes>
          <leafValues>
            -1. 1.9993481691926718e-03</leafValues></_>
        <_>
          <internalNodes>
            0 -1 192 -1.1763563088607043e-04</internalNodes>
          <leafValues>
            1. 2.6640702976976627e-09</leafValues></_>
        <_>
          <internalNodes>
            0 -1 192 -3.8325492641888559e-04</internalNodes>
          <leafValues>
            -1. -2.6629676128732448e-15</leafValues></_>
        <_>
          <internalNodes>
            0 -1 191 -3.0923285521566868e-04</internalNodes>
          <leafValues>
            1. -5.6974927429109812e-04</leafValues></_>
        <_>
          <internalNodes>
            0 -1 191 -4.5088815386407077e-04</internalNodes>
          <leafValues>
            -1. 1.0742495069280267e-03</leafValues></_>
        <_>
          <internalNodes>
            0 -1 191 -3.0923285521566868e-04</internalNodes>
          <leafValues>
            1. -1.0742491576820612e-03</leafValues></_>
        <_>
          <internalNodes>
            0 -1 191 -4.5088815386407077e-04</internalNodes>
          <leafValues>
            -1. 1.0742491576820612e-03</leafValues></_>
        <_>
          <internalNodes>
            0 -1 191 -3.0923285521566868e-04</internalNodes>
          <leafValues>
            1. -1.0742491576820612e-03</leafValues></_>
        <_>
          <internalNodes>
            0 -1 191 -4.5088815386407077e-04</internalNodes>
          <leafValues>
            -1. 5.2838237024843693e-04</leafValues></_>
        <_>
          <internalNodes>
            0 -1 191 -3.0923285521566868e-04</internalNodes>
          <leafValues>
            1. -5.2838277770206332e-04</leafValues></_>
        <_>
          <internalNodes>
            0 -1 191 -1.6279853298328817e-04</internalNodes>
          <leafValues>
            -1. 1.0742495069280267e-03</leafValues></_>
        <_>
          <internalNodes>
            0 -1 191 -3.0923285521566868e-04</internalNodes>
          <leafValues>
            1. -1.0742491576820612e-03</leafValues></_>
        <_>
          <internalNodes>
            0 -1 191 -1.6279853298328817e-04</internalNodes>
          <leafValues>
            -1. 1.0742491576820612e-03</leafValues></_>
        <_>
          <internalNodes>
            0 -1 191 -3.0923285521566868e-04</internalNodes>
          <leafValues>
            1. -1.0742491576820612e-03</leafValues></_>
        <_>
          <internalNodes>
            0 -1 191 -1.6279853298328817e-04</internalNodes>
          <leafValues>
            -1. 1.0742491576820612e-03</leafValues></_>
        <_>
          <internalNodes>
            0 -1 191 -3.0923285521566868e-04</internalNodes>
          <leafValues>
            1. -1.0742491576820612e-03</leafValues></_>
        <_>
          <internalNodes>
            0 -1 191 -1.6279853298328817e-04</internalNodes>
          <leafValues>
            -1. 1.0742491576820612e-03</leafValues></_>
        <_>
          <internalNodes>
            0 -1 191 -3.0923285521566868e-04</internalNodes>
          <leafValues>
            1. -1.0742491576820612e-03</leafValues></_>
        <_>
          <internalNodes>
            0 -1 191 -1.6279853298328817e-04</internalNodes>
          <leafValues>
            -1. 1.0742491576820612e-03</leafValues></_>
        <_>
          <internalNodes>
            0 -1 191 -3.0923285521566868e-04</internalNodes>
          <leafValues>
            1. -1.0742491576820612e-03</leafValues></_>
        <_>
          <internalNodes>
            0 -1 191 -1.6279853298328817e-04</internalNodes>
          <leafValues>
            -1. 1.0742491576820612e-03</leafValues></_>
        <_>
          <internalNodes>
            0 -1 191 -3.0923285521566868e-04</internalNodes>
          <leafValues>
            1. -1.0742491576820612e-03</leafValues></_>
        <_>
          <internalNodes>
            0 -1 191 -1.6279853298328817e-04</internalNodes>
          <leafValues>
            -1. 1.0742491576820612e-03</leafValues></_>
        <_>
          <internalNodes>
            0 -1 191 -3.0923285521566868e-04</internalNodes>
          <leafValues>
            1. -1.0742491576820612e-03</leafValues></_>
        <_>
          <internalNodes>
            0 -1 191 -1.6279853298328817e-04</internalNodes>
          <leafValues>
            -1. 1.0742491576820612e-03</leafValues></_>
        <_>
          <internalNodes>
            0 -1 191 -3.0923285521566868e-04</internalNodes>
          <leafValues>
            1. -1.0742491576820612e-03</leafValues></_>
        <_>
          <internalNodes>
            0 -1 191 -1.6279853298328817e-04</internalNodes>
          <leafValues>
            -1. 1.0742491576820612e-03</leafValues></_>
        <_>
          <internalNodes>
            0 -1 191 -3.0923285521566868e-04</internalNodes>
          <leafValues>
            1. -1.0742491576820612e-03</leafValues></_>
        <_>
          <internalNodes>
            0 -1 191 -1.6279853298328817e-04</internalNodes>
          <leafValues>
            -1. 1.0742491576820612e-03</leafValues></_>
        <_>
          <internalNodes>
            0 -1 191 -3.0923285521566868e-04</internalNodes>
          <leafValues>
            1. -1.0742491576820612e-03</leafValues></_>
        <_>
          <internalNodes>
            0 -1 191 -1.6279853298328817e-04</internalNodes>
          <leafValues>
            -1. 1.0742491576820612e-03</leafValues></_>
        <_>
          <internalNodes>
            0 -1 191 -3.0923285521566868e-04</internalNodes>
          <leafValues>
            1. -1.0742491576820612e-03</leafValues></_>
        <_>
          <internalNodes>
            0 -1 191 -1.6279853298328817e-04</internalNodes>
          <leafValues>
            -1. 1.0742491576820612e-03</leafValues></_>
        <_>
          <internalNodes>
            0 -1 191 -3.0923285521566868e-04</internalNodes>
          <leafValues>
            1. -1.0742491576820612e-03</leafValues></_>
        <_>
          <internalNodes>
            0 -1 191 -1.6279853298328817e-04</internalNodes>
          <leafValues>
            -1. 1.0742491576820612e-03</leafValues></_>
        <_>
          <internalNodes>
            0 -1 191 -3.0923285521566868e-04</internalNodes>
          <leafValues>
            1. -1.0742491576820612e-03</leafValues></_>
        <_>
          <internalNodes>
            0 -1 191 -1.6279853298328817e-04</internalNodes>
          <leafValues>
            -1. 1.0742491576820612e-03</leafValues></_>
        <_>
          <internalNodes>
            0 -1 191 -3.0923285521566868e-04</internalNodes>
          <leafValues>
            1. -1.0742491576820612e-03</leafValues></_></weakClassifiers></_>
    <!-- stage 10 -->
    <_>
      <maxWeakCount>100</maxWeakCount>
      <stageThreshold>-3.1657938957214355e+00</stageThreshold>
      <weakClassifiers>
        <_>
          <internalNodes>
            0 -1 359 1.8830968067049980e-02</internalNodes>
          <leafValues>
            -9.2152917385101318e-01 -1.1235955171287060e-02</leafValues></_>
        <_>
          <internalNodes>
            0 -1 323 -7.3189046233892441e-03</internalNodes>
          <leafValues>
            1.1008265614509583e-01 -7.9614013433456421e-01</leafValues></_>
        <_>
          <internalNodes>
            0 -1 2 -1.2642929330468178e-02</internalNodes>
          <leafValues>
            5.0180333852767944e-01 -4.7938263416290283e-01</leafValues></_>
        <_>
          <internalNodes>
            0 -1 268 -3.0846160370856524e-05</internalNodes>
          <leafValues>
            4.3173667788505554e-01 -4.4213140010833740e-01</leafValues></_>
        <_>
          <internalNodes>
            0 -1 183 -1.0072641074657440e-02</internalNodes>
          <leafValues>
            7.2016394138336182e-01 -1.7734654247760773e-01</leafValues></_>
        <_>
          <internalNodes>
            0 -1 229 -1.5360209159553051e-02</internalNodes>
          <leafValues>
            -9.1186344623565674e-01 1.7788168787956238e-01</leafValues></_>
        <_>
          <internalNodes>
            0 -1 352 1.0030118282884359e-03</internalNodes>
          <leafValues>
            -3.2120558619499207e-01 5.0981700420379639e-01</leafValues></_>
        <_>
          <internalNodes>
            0 -1 21 1.5942930476740003e-03</internalNodes>
          <leafValues>
            2.3063449561595917e-01 -6.4335584640502930e-01</leafValues></_>
        <_>
          <internalNodes>
            0 -1 108 1.8010169267654419e-02</internalNodes>
          <leafValues>
            -3.2803559303283691e-01 5.3579252958297729e-01</leafValues></_>
        <_>
          <internalNodes>
            0 -1 227 -6.0653481632471085e-03</internalNodes>
          <leafValues>
            -8.4149080514907837e-01 1.3354536890983582e-01</leafValues></_>
        <_>
          <internalNodes>
            0 -1 221 1.3438379392027855e-02</internalNodes>
          <leafValues>
            -2.0374232530593872e-01 6.2820327281951904e-01</leafValues></_>
        <_>
          <internalNodes>
            0 -1 126 -8.9287897571921349e-03</internalNodes>
          <leafValues>
            -8.8223439455032349e-01 1.3113197684288025e-01</leafValues></_>
        <_>
          <internalNodes>
            0 -1 65 1.2378007522784173e-04</internalNodes>
          <leafValues>
            -2.3986378312110901e-01 4.3455502390861511e-01</leafValues></_>
        <_>
          <internalNodes>
            0 -1 144 1.1453210390754975e-05</internalNodes>
          <leafValues>
            1.4054775238037109e-01 -7.2626823186874390e-01</leafValues></_>
        <_>
          <internalNodes>
            0 -1 228 -6.2146154232323170e-04</internalNodes>
          <leafValues>
            -9.4279140233993530e-01 8.5216477513313293e-02</leafValues></_>
        <_>
          <internalNodes>
            0 -1 341 -3.1009833328425884e-03</internalNodes>
          <leafValues>
            6.2436830997467041e-01 -1.8700556457042694e-01</leafValues></_>
        <_>
          <internalNodes>
            0 -1 67 3.4195319749414921e-03</internalNodes>
          <leafValues>
            9.8401337862014771e-02 -9.6943289041519165e-01</leafValues></_>
        <_>
          <internalNodes>
            0 -1 305 4.8942480236291885e-02</internalNodes>
          <leafValues>
            -1.7482210695743561e-01 5.7795500755310059e-01</leafValues></_>
        <_>
          <internalNodes>
            0 -1 241 1.6166754066944122e-02</internalNodes>
          <leafValues>
            1.1405273526906967e-01 -7.4361288547515869e-01</leafValues></_>
        <_>
          <internalNodes>
            0 -1 356 -3.5609677433967590e-02</internalNodes>
          <leafValues>
            8.3551144599914551e-01 -9.8595067858695984e-02</leafValues></_>
        <_>
          <internalNodes>
            0 -1 60 -1.8408894538879395e-02</internalNodes>
          <leafValues>
            -7.0681703090667725e-01 1.5522718429565430e-01</leafValues></_>
        <_>
          <internalNodes>
            0 -1 339 2.3760914336889982e-04</internalNodes>
          <leafValues>
            -1.3720427453517914e-01 5.9766191244125366e-01</leafValues></_>
        <_>
          <internalNodes>
            0 -1 389 -2.0047989673912525e-03</internalNodes>
          <leafValues>
            -6.0526746511459351e-01 1.3338108360767365e-01</leafValues></_>
        <_>
          <internalNodes>
            0 -1 302 -2.1508773788809776e-02</internalNodes>
          <leafValues>
            5.3817957639694214e-01 -1.3935738801956177e-01</leafValues></_>
        <_>
          <internalNodes>
            0 -1 86 -4.7619029646739364e-04</internalNodes>
          <leafValues>
            -5.6472492218017578e-01 1.1772969365119934e-01</leafValues></_>
        <_>
          <internalNodes>
            0 -1 238 3.4180114744231105e-04</internalNodes>
          <leafValues>
            -1.2473436444997787e-01 5.6987124681472778e-01</leafValues></_>
        <_>
          <internalNodes>
            0 -1 113 -1.6481772065162659e-02</internalNodes>
          <leafValues>
            -7.5837391614913940e-01 8.8296711444854736e-02</leafValues></_>
        <_>
          <internalNodes>
            0 -1 224 -7.0421481505036354e-03</internalNodes>
          <leafValues>
            -8.5913980007171631e-01 5.3726673126220703e-02</leafValues></_>
        <_>
          <internalNodes>
            0 -1 314 -1.9312821677885950e-04</internalNodes>
          <leafValues>
            4.8706620931625366e-01 -1.4637812972068787e-01</leafValues></_>
        <_>
          <internalNodes>
            0 -1 71 1.7814274877309799e-02</internalNodes>
          <leafValues>
            1.0894825309514999e-01 -6.4722758531570435e-01</leafValues></_>
        <_>
          <internalNodes>
            0 -1 117 -9.5185540616512299e-02</internalNodes>
          <leafValues>
            8.0919569730758667e-01 -7.7931821346282959e-02</leafValues></_>
        <_>
          <internalNodes>
            0 -1 386 -1.6059484332799911e-02</internalNodes>
          <leafValues>
            -7.7801001071929932e-01 8.2102201879024506e-02</leafValues></_>
        <_>
          <internalNodes>
            0 -1 135 1.1917144060134888e-02</internalNodes>
          <leafValues>
            -7.9872258007526398e-02 7.7749520540237427e-01</leafValues></_>
        <_>
          <internalNodes>
            0 -1 44 5.3705442696809769e-03</internalNodes>
          <leafValues>
            6.7408479750156403e-02 -8.6895722150802612e-01</leafValues></_>
        <_>
          <internalNodes>
            0 -1 62 -1.5791436453582719e-05</internalNodes>
          <leafValues>
            -7.2958469390869141e-01 4.1103143244981766e-02</leafValues></_>
        <_>
          <internalNodes>
            0 -1 165 -3.5011187195777893e-01</internalNodes>
          <leafValues>
            8.8268905878067017e-01 -5.5024486035108566e-02</leafValues></_>
        <_>
          <internalNodes>
            0 -1 360 -3.7640281021595001e-02</internalNodes>
          <leafValues>
            9.6862149238586426e-01 -2.9528759419918060e-02</leafValues></_>
        <_>
          <internalNodes>
            0 -1 98 -5.7165836915373802e-03</internalNodes>
          <leafValues>
            -8.8179749250411987e-01 5.0014339387416840e-02</leafValues></_>
        <_>
          <internalNodes>
            0 -1 337 3.8591116666793823e-02</internalNodes>
          <leafValues>
            -4.4683478772640228e-02 9.4462198019027710e-01</leafValues></_>
        <_>
          <internalNodes>
            0 -1 81 2.9417026787996292e-02</internalNodes>
          <leafValues>
            3.7024337798357010e-02 -1.</leafValues></_>
        <_>
          <internalNodes>
            0 -1 181 5.3099356591701508e-03</internalNodes>
          <leafValues>
            2.7426958084106445e-02 -9.2008417844772339e-01</leafValues></_>
        <_>
          <internalNodes>
            0 -1 106 9.8246047855354846e-05</internalNodes>
          <leafValues>
            -5.3487487137317657e-02 7.4321973323822021e-01</leafValues></_>
        <_>
          <internalNodes>
            0 -1 250 7.5797415338456631e-03</internalNodes>
          <leafValues>
            2.7507908642292023e-02 -1.</leafValues></_>
        <_>
          <internalNodes>
            0 -1 110 -9.4551473855972290e-02</internalNodes>
          <leafValues>
            1. -2.8549628332257271e-02</leafValues></_>
        <_>
          <internalNodes>
            0 -1 254 2.0987689495086670e-02</internalNodes>
          <leafValues>
            2.7247093617916107e-02 -9.5406383275985718e-01</leafValues></_>
        <_>
          <internalNodes>
            0 -1 259 -1.0716345859691501e-03</internalNodes>
          <leafValues>
            6.1717593669891357e-01 -3.6873549222946167e-02</leafValues></_>
        <_>
          <internalNodes>
            0 -1 375 1.6663097994751297e-05</internalNodes>
          <leafValues>
            3.2662805169820786e-02 -7.1864974498748779e-01</leafValues></_>
        <_>
          <internalNodes>
            0 -1 372 5.0608527089934796e-05</internalNodes>
          <leafValues>
            -2.4518562480807304e-02 7.7347111701965332e-01</leafValues></_>
        <_>
          <internalNodes>
            0 -1 74 1.0180601384490728e-03</internalNodes>
          <leafValues>
            1.9750386476516724e-02 -8.1713145971298218e-01</leafValues></_>
        <_>
          <internalNodes>
            0 -1 134 -1.1121132411062717e-03</internalNodes>
          <leafValues>
            6.0623252391815186e-01 -2.9123820364475250e-02</leafValues></_>
        <_>
          <internalNodes>
            0 -1 37 1.4969553798437119e-02</internalNodes>
          <leafValues>
            2.7887206524610519e-02 -6.7269933223724365e-01</leafValues></_>
        <_>
          <internalNodes>
            0 -1 309 1.8307246267795563e-02</internalNodes>
          <leafValues>
            -5.3539304062724113e-03 9.5234793424606323e-01</leafValues></_>
        <_>
          <internalNodes>
            0 -1 230 -1.2262504547834396e-02</internalNodes>
          <leafValues>
            -8.1590956449508667e-01 1.5647545456886292e-02</leafValues></_>
        <_>
          <internalNodes>
            0 -1 303 -2.2867195308208466e-02</internalNodes>
          <leafValues>
            9.0996468067169189e-01 -1.8218852579593658e-02</leafValues></_>
        <_>
          <internalNodes>
            0 -1 48 7.0744436234235764e-03</internalNodes>
          <leafValues>
            9.3960212543606758e-03 -8.2410186529159546e-01</leafValues></_>
        <_>
          <internalNodes>
            0 -1 345 1.5964464982971549e-03</internalNodes>
          <leafValues>
            -8.9439656585454941e-03 7.8405594825744629e-01</leafValues></_>
        <_>
          <internalNodes>
            0 -1 348 -1.0153922485187650e-03</internalNodes>
          <leafValues>
            -8.8616150617599487e-01 8.1062279641628265e-03</leafValues></_>
        <_>
          <internalNodes>
            0 -1 158 3.0206838346202858e-05</internalNodes>
          <leafValues>
            -9.9738826975226402e-03 7.1822273731231689e-01</leafValues></_>
        <_>
          <internalNodes>
            0 -1 256 8.8451174087822437e-04</internalNodes>
          <leafValues>
            6.3355672173202038e-03 -7.6589381694793701e-01</leafValues></_>
        <_>
          <internalNodes>
            0 -1 318 1.5435161185450852e-04</internalNodes>
          <leafValues>
            -3.7209605798125267e-03 9.1094022989273071e-01</leafValues></_>
        <_>
          <internalNodes>
            0 -1 24 -2.3447163403034210e-03</internalNodes>
          <leafValues>
            -9.1740995645523071e-01 4.0217936038970947e-03</leafValues></_>
        <_>
          <internalNodes>
            0 -1 149 -1.4705042121931911e-04</internalNodes>
          <leafValues>
            9.2721378803253174e-01 -3.4835468977689743e-03</leafValues></_>
        <_>
          <internalNodes>
            0 -1 336 2.8503005523816682e-05</internalNodes>
          <leafValues>
            6.6457069478929043e-03 -9.4274562597274780e-01</leafValues></_>
        <_>
          <internalNodes>
            0 -1 255 6.3833966851234436e-03</internalNodes>
          <leafValues>
            -4.0838681161403656e-03 9.0941417217254639e-01</leafValues></_>
        <_>
          <internalNodes>
            0 -1 269 5.4784404346719384e-04</internalNodes>
          <leafValues>
            6.9871502928435802e-03 -8.1969493627548218e-01</leafValues></_>
        <_>
          <internalNodes>
            0 -1 320 6.7147961817681789e-04</internalNodes>
          <leafValues>
            -4.9422481097280979e-03 1.</leafValues></_>
        <_>
          <internalNodes>
            0 -1 320 1.6240729019045830e-04</internalNodes>
          <leafValues>
            1.3838076265528798e-03 -9.3614393472671509e-01</leafValues></_>
        <_>
          <internalNodes>
            0 -1 329 7.2738516610115767e-04</internalNodes>
          <leafValues>
            -1.1631305096670985e-03 1.</leafValues></_>
        <_>
          <internalNodes>
            0 -1 330 2.5288998149335384e-03</internalNodes>
          <leafValues>
            1.7991006607189775e-03 -1.</leafValues></_>
        <_>
          <internalNodes>
            0 -1 367 2.4917093105614185e-03</internalNodes>
          <leafValues>
            -1.8844139995053411e-03 1.</leafValues></_>
        <_>
          <internalNodes>
            0 -1 368 5.5322281696135178e-05</internalNodes>
          <leafValues>
            3.3075651153922081e-03 -1.</leafValues></_>
        <_>
          <internalNodes>
            0 -1 218 4.4600976252695546e-05</internalNodes>
          <leafValues>
            -1.9675611983984709e-03 1.</leafValues></_>
        <_>
          <internalNodes>
            0 -1 218 2.3595359380124137e-05</internalNodes>
          <leafValues>
            9.0660538990050554e-04 -9.7115659713745117e-01</leafValues></_>
        <_>
          <internalNodes>
            0 -1 313 -3.6589361116057262e-05</internalNodes>
          <leafValues>
            1. -5.7331082643941045e-04</leafValues></_>
        <_>
          <internalNodes>
            0 -1 311 -7.6913238444831222e-05</internalNodes>
          <leafValues>
            -1. 1.0170413879677653e-03</leafValues></_>
        <_>
          <internalNodes>
            0 -1 310 -4.5480894186766818e-05</internalNodes>
          <leafValues>
            1. -4.9260247033089399e-04</leafValues></_>
        <_>
          <internalNodes>
            0 -1 310 -3.0765295377932489e-05</internalNodes>
          <leafValues>
            -1. -3.9855681255307474e-11</leafValues></_>
        <_>
          <internalNodes>
            0 -1 11 -1.1030634865164757e-02</internalNodes>
          <leafValues>
            9.0579158067703247e-01 -1.3038289034739137e-03</leafValues></_>
        <_>
          <internalNodes>
            0 -1 9 -1.9017766462638974e-03</internalNodes>
          <leafValues>
            -1. 2.4368690792471170e-03</leafValues></_>
        <_>
          <internalNodes>
            0 -1 8 -6.1797909438610077e-03</internalNodes>
          <leafValues>
            1. 5.3271296201273799e-04</leafValues></_>
        <_>
          <internalNodes>
            0 -1 28 -4.3803844600915909e-03</internalNodes>
          <leafValues>
            -1. -2.6580721169011667e-05</leafValues></_>
        <_>
          <internalNodes>
            0 -1 5 -8.9751556515693665e-04</internalNodes>
          <leafValues>
            1. -4.8806058475747705e-04</leafValues></_>
        <_>
          <internalNodes>
            0 -1 5 -7.8699458390474319e-04</internalNodes>
          <leafValues>
            -9.7301810979843140e-01 9.6449255943298340e-04</leafValues></_>
        <_>
          <internalNodes>
            0 -1 7 -3.9403121918439865e-03</internalNodes>
          <leafValues>
            1. -1.4791466528549790e-03</leafValues></_>
        <_>
          <internalNodes>
            0 -1 6 -1.8444780725985765e-03</internalNodes>
          <leafValues>
            -1. 1.0082200169563293e-03</leafValues></_>
        <_>
          <internalNodes>
            0 -1 5 -8.9751556515693665e-04</internalNodes>
          <leafValues>
            1. 2.1075387849123217e-05</leafValues></_>
        <_>
          <internalNodes>
            0 -1 5 -8.5145671619102359e-04</internalNodes>
          <leafValues>
            -1. 4.4962798710912466e-04</leafValues></_>
        <_>
          <internalNodes>
            0 -1 5 -8.9751556515693665e-04</internalNodes>
          <leafValues>
            1. -4.4962795800529420e-04</leafValues></_>
        <_>
          <internalNodes>
            0 -1 5 -8.5145671619102359e-04</internalNodes>
          <leafValues>
            -1. 4.4962795800529420e-04</leafValues></_>
        <_>
          <internalNodes>
            0 -1 5 -8.9751556515693665e-04</internalNodes>
          <leafValues>
            1. -4.4962795800529420e-04</leafValues></_>
        <_>
          <internalNodes>
            0 -1 5 -8.5145671619102359e-04</internalNodes>
          <leafValues>
            -1. 4.4962795800529420e-04</leafValues></_>
        <_>
          <internalNodes>
            0 -1 5 -8.9751556515693665e-04</internalNodes>
          <leafValues>
            1. -4.4962795800529420e-04</leafValues></_>
        <_>
          <internalNodes>
            0 -1 5 -8.5145671619102359e-04</internalNodes>
          <leafValues>
            -1. 4.4962795800529420e-04</leafValues></_>
        <_>
          <internalNodes>
            0 -1 5 -8.9751556515693665e-04</internalNodes>
          <leafValues>
            1. -4.4962795800529420e-04</leafValues></_>
        <_>
          <internalNodes>
            0 -1 5 -8.5145671619102359e-04</internalNodes>
          <leafValues>
            -1. 4.4962795800529420e-04</leafValues></_>
        <_>
          <internalNodes>
            0 -1 5 -8.9751556515693665e-04</internalNodes>
          <leafValues>
            1. -4.4962795800529420e-04</leafValues></_>
        <_>
          <internalNodes>
            0 -1 5 -8.5145671619102359e-04</internalNodes>
          <leafValues>
            -1. 4.4962795800529420e-04</leafValues></_>
        <_>
          <internalNodes>
            0 -1 5 -8.9751556515693665e-04</internalNodes>
          <leafValues>
            1. -4.4962795800529420e-04</leafValues></_>
        <_>
          <internalNodes>
            0 -1 5 -8.5145671619102359e-04</internalNodes>
          <leafValues>
            -1. 4.4962795800529420e-04</leafValues></_>
        <_>
          <internalNodes>
            0 -1 5 -8.9751556515693665e-04</internalNodes>
          <leafValues>
            1. -4.4962795800529420e-04</leafValues></_></weakClassifiers></_>
    <!-- stage 11 -->
    <_>
      <maxWeakCount>100</maxWeakCount>
      <stageThreshold>-3.4086656570434570e+00</stageThreshold>
      <weakClassifiers>
        <_>
          <internalNodes>
            0 -1 264 1.6952159057836980e-04</internalNodes>
          <leafValues>
            -9.5665025711059570e-01 7.9411762952804565e-01</leafValues></_>
        <_>
          <internalNodes>
            0 -1 246 -6.5671869379002601e-05</internalNodes>
          <leafValues>
            8.7238311767578125e-01 -8.9011514186859131e-01</leafValues></_>
        <_>
          <internalNodes>
            0 -1 294 8.7894108146429062e-03</internalNodes>
          <leafValues>
            -7.8671616315841675e-01 7.0157182216644287e-01</leafValues></_>
        <_>
          <internalNodes>
            0 -1 274 -2.6726316718850285e-05</internalNodes>
          <leafValues>
            8.9698892831802368e-01 -4.6547776460647583e-01</leafValues></_>
        <_>
          <internalNodes>
            0 -1 173 -9.1165675257798284e-05</internalNodes>
          <leafValues>
            8.6978995800018311e-01 -2.4239441752433777e-01</leafValues></_>
        <_>
          <internalNodes>
            0 -1 45 2.3200309442472644e-05</internalNodes>
          <leafValues>
            -1.1304367333650589e-01 8.7560433149337769e-01</leafValues></_>
        <_>
          <internalNodes>
            0 -1 369 -7.5674988329410553e-03</internalNodes>
          <leafValues>
            9.6479606628417969e-01 -5.8038510382175446e-02</leafValues></_>
        <_>
          <internalNodes>
            0 -1 373 8.5212588310241699e-02</internalNodes>
          <leafValues>
            1.2421088665723801e-01 -1.</leafValues></_>
        <_>
          <internalNodes>
            0 -1 248 7.5537851080298424e-04</internalNodes>
          <leafValues>
            -1.2433423846960068e-01 9.4018936157226563e-01</leafValues></_>
        <_>
          <internalNodes>
            0 -1 38 2.8785679489374161e-02</internalNodes>
          <leafValues>
            1.3449911773204803e-01 -7.5539672374725342e-01</leafValues></_>
        <_>
          <internalNodes>
            0 -1 284 9.9687284091487527e-05</internalNodes>
          <leafValues>
            -9.5274679362773895e-02 8.8012635707855225e-01</leafValues></_>
        <_>
          <internalNodes>
            0 -1 53 7.6435215771198273e-02</internalNodes>
          <leafValues>
            7.6388239860534668e-02 -9.6236193180084229e-01</leafValues></_>
        <_>
          <internalNodes>
            0 -1 377 -2.2824644474894740e-05</internalNodes>
          <leafValues>
            8.0737096071243286e-01 -7.1139566600322723e-02</leafValues></_>
        <_>
          <internalNodes>
            0 -1 235 -1.2475769966840744e-01</internalNodes>
          <leafValues>
            -8.6952412128448486e-01 5.6339319795370102e-02</leafValues></_>
        <_>
          <internalNodes>
            0 -1 167 1.9942171871662140e-01</internalNodes>
          <leafValues>
            3.6342334002256393e-02 -8.6957800388336182e-01</leafValues></_>
        <_>
          <internalNodes>
            0 -1 261 -2.4343235054402612e-05</internalNodes>
          <leafValues>
            8.1080025434494019e-01 -5.6641008704900742e-02</leafValues></_>
        <_>
          <internalNodes>
            0 -1 188 -1.5408377163112164e-02</internalNodes>
          <leafValues>
            -8.4745180606842041e-01 3.8691792637109756e-02</leafValues></_>
        <_>
          <internalNodes>
            0 -1 328 -1.0042584035545588e-03</internalNodes>
          <leafValues>
            9.1326147317886353e-01 -3.3646471798419952e-02</leafValues></_>
        <_>
          <internalNodes>
            0 -1 54 -1.4363550581037998e-02</internalNodes>
          <leafValues>
            -7.8742486238479614e-01 3.1816437840461731e-02</leafValues></_>
        <_>
          <internalNodes>
            0 -1 350 -4.4267155317356810e-05</internalNodes>
          <leafValues>
            9.3314468860626221e-01 -2.3106267675757408e-02</leafValues></_>
        <_>
          <internalNodes>
            0 -1 51 7.1685493458062410e-04</internalNodes>
          <leafValues>
            2.0783329382538795e-02 -9.3060845136642456e-01</leafValues></_>
        <_>
          <internalNodes>
            0 -1 298 6.4820447005331516e-04</internalNodes>
          <leafValues>
            -2.1652234718203545e-02 8.4300321340560913e-01</leafValues></_>
        <_>
          <internalNodes>
            0 -1 344 1.4691906049847603e-02</internalNodes>
          <leafValues>
            3.9366278797388077e-03 -1.</leafValues></_>
        <_>
          <internalNodes>
            0 -1 101 -5.6799193844199181e-03</internalNodes>
          <leafValues>
            -1. 1.9208820536732674e-02</leafValues></_>
        <_>
          <internalNodes>
            0 -1 338 -7.7889924868941307e-03</internalNodes>
          <leafValues>
            8.8912600278854370e-01 -1.9126148894429207e-02</leafValues></_>
        <_>
          <internalNodes>
            0 -1 52 8.8114999234676361e-03</internalNodes>
          <leafValues>
            7.5601218268275261e-03 -1.</leafValues></_>
        <_>
          <internalNodes>
            0 -1 42 2.0217036362737417e-03</internalNodes>
          <leafValues>
            -4.7422130592167377e-03 9.4647240638732910e-01</leafValues></_>
        <_>
          <internalNodes>
            0 -1 260 -4.0044865454547107e-04</internalNodes>
          <leafValues>
            -1. 3.8323230110108852e-03</leafValues></_>
        <_>
          <internalNodes>
            0 -1 136 1.2205219827592373e-03</internalNodes>
          <leafValues>
            -3.2066964195109904e-04 1.</leafValues></_>
        <_>
          <internalNodes>
            0 -1 139 1.4404328539967537e-03</internalNodes>
          <leafValues>
            1.2426588218659163e-03 -1.</leafValues></_>
        <_>
          <internalNodes>
            0 -1 257 6.6446978598833084e-04</internalNodes>
          <leafValues>
            -1.9864549394696951e-03 1.</leafValues></_>
        <_>
          <internalNodes>
            0 -1 294 1.9267410971224308e-04</internalNodes>
          <leafValues>
            8.8811741443350911e-04 -1.</leafValues></_>
        <_>
          <internalNodes>
            0 -1 293 1.4401744119822979e-03</internalNodes>
          <leafValues>
            2.3349150390927775e-10 1.</leafValues></_>
        <_>
          <internalNodes>
            0 -1 292 1.6880568582564592e-03</internalNodes>
          <leafValues>
            -1.5592267196351886e-15 -1.</leafValues></_>
        <_>
          <internalNodes>
            0 -1 292 2.6770327240228653e-03</internalNodes>
          <leafValues>
            7.3756969363450095e-15 1.</leafValues></_>
        <_>
          <internalNodes>
            0 -1 292 1.6880568582564592e-03</internalNodes>
          <leafValues>
            -1.2248105734659603e-14 -1.</leafValues></_>
        <_>
          <internalNodes>
            0 -1 292 2.6770327240228653e-03</internalNodes>
          <leafValues>
            -2.7596240247920907e-15 1.</leafValues></_>
        <_>
          <internalNodes>
            0 -1 292 1.6880568582564592e-03</internalNodes>
          <leafValues>
            5.3344686591736031e-15 -1.</leafValues></_>
        <_>
          <internalNodes>
            0 -1 292 1.1226069182157516e-03</internalNodes>
          <leafValues>
            2.8897941423020003e-15 1.</leafValues></_>
        <_>
          <internalNodes>
            0 -1 292 1.6880568582564592e-03</internalNodes>
          <leafValues>
            -5.2052419246086980e-16 -1.</leafValues></_>
        <_>
          <internalNodes>
            0 -1 292 1.1226069182157516e-03</internalNodes>
          <leafValues>
            -7.4070583312171000e-15 1.</leafValues></_>
        <_>
          <internalNodes>
            0 -1 292 8.3934364374727011e-04</internalNodes>
          <leafValues>
            1.2451687562433332e-14 -1.</leafValues></_>
        <_>
          <internalNodes>
            0 -1 292 1.1226069182157516e-03</internalNodes>
          <leafValues>
            -6.8558634992526256e-15 1.</leafValues></_>
        <_>
          <internalNodes>
            0 -1 292 8.3934364374727011e-04</internalNodes>
          <leafValues>
            1.0559926719134419e-14 -1.</leafValues></_>
        <_>
          <internalNodes>
            0 -1 292 1.1226069182157516e-03</internalNodes>
          <leafValues>
            -1.4038858746031387e-14 1.</leafValues></_>
        <_>
          <internalNodes>
            0 -1 292 8.3934364374727011e-04</internalNodes>
          <leafValues>
            1.4486670665684633e-14 -1.</leafValues></_>
        <_>
          <internalNodes>
            0 -1 292 1.1226069182157516e-03</internalNodes>
          <leafValues>
            -1.4032423836731096e-14 1.</leafValues></_>
        <_>
          <internalNodes>
            0 -1 292 8.3934364374727011e-04</internalNodes>
          <leafValues>
            1.4398059160940571e-14 -1.</leafValues></_>
        <_>
          <internalNodes>
            0 -1 292 1.1226069182157516e-03</internalNodes>
          <leafValues>
            -1.4119520846565467e-14 1.</leafValues></_>
        <_>
          <internalNodes>
            0 -1 292 8.3934364374727011e-04</internalNodes>
          <leafValues>
            1.4387754158104275e-14 -1.</leafValues></_>
        <_>
          <internalNodes>
            0 -1 292 1.1226069182157516e-03</internalNodes>
          <leafValues>
            -1.4131701180346984e-14 1.</leafValues></_>
        <_>
          <internalNodes>
            0 -1 292 8.3934364374727011e-04</internalNodes>
          <leafValues>
            1.2613456455798800e-14 -1.</leafValues></_>
        <_>
          <internalNodes>
            0 -1 292 1.1226069182157516e-03</internalNodes>
          <leafValues>
            -1.3601189198888565e-14 1.</leafValues></_>
        <_>
          <internalNodes>
            0 -1 292 8.3934364374727011e-04</internalNodes>
          <leafValues>
            1.4522390045070346e-14 -1.</leafValues></_>
        <_>
          <internalNodes>
            0 -1 292 1.1226069182157516e-03</internalNodes>
          <leafValues>
            -1.4033342867478867e-14 1.</leafValues></_>
        <_>
          <internalNodes>
            0 -1 292 8.3934364374727011e-04</internalNodes>
          <leafValues>
            1.4390273234089410e-14 -1.</leafValues></_>
        <_>
          <internalNodes>
            0 -1 292 1.1226069182157516e-03</internalNodes>
          <leafValues>
            -1.4185935852926729e-14 1.</leafValues></_>
        <_>
          <internalNodes>
            0 -1 292 8.3934364374727011e-04</internalNodes>
          <leafValues>
            1.4386839362521241e-14 -1.</leafValues></_>
        <_>
          <internalNodes>
            0 -1 292 1.1226069182157516e-03</internalNodes>
          <leafValues>
            -1.4191221338517596e-14 1.</leafValues></_>
        <_>
          <internalNodes>
            0 -1 292 8.3934364374727011e-04</internalNodes>
          <leafValues>
            1.2608418303828531e-14 -1.</leafValues></_>
        <_>
          <internalNodes>
            0 -1 292 1.1226069182157516e-03</internalNodes>
          <leafValues>
            -1.3613139139708429e-14 1.</leafValues></_>
        <_>
          <internalNodes>
            0 -1 292 8.3934364374727011e-04</internalNodes>
          <leafValues>
            1.4517238390685146e-14 -1.</leafValues></_>
        <_>
          <internalNodes>
            0 -1 292 1.1226069182157516e-03</internalNodes>
          <leafValues>
            -1.4116878103770034e-14 1.</leafValues></_>
        <_>
          <internalNodes>
            0 -1 292 8.3934364374727011e-04</internalNodes>
          <leafValues>
            1.4392219715802200e-14 -1.</leafValues></_>
        <_>
          <internalNodes>
            0 -1 292 1.1226069182157516e-03</internalNodes>
          <leafValues>
            -1.4185820656445903e-14 1.</leafValues></_>
        <_>
          <internalNodes>
            0 -1 292 8.3934364374727011e-04</internalNodes>
          <leafValues>
            1.4386952864936173e-14 -1.</leafValues></_>
        <_>
          <internalNodes>
            0 -1 292 1.1226069182157516e-03</internalNodes>
          <leafValues>
            -1.4191106142036770e-14 1.</leafValues></_>
        <_>
          <internalNodes>
            0 -1 292 8.3934364374727011e-04</internalNodes>
          <leafValues>
            1.2610364785541322e-14 -1.</leafValues></_>
        <_>
          <internalNodes>
            0 -1 292 1.1226069182157516e-03</internalNodes>
          <leafValues>
            -1.3726319682120548e-14 1.</leafValues></_>
        <_>
          <internalNodes>
            0 -1 292 8.3934364374727011e-04</internalNodes>
          <leafValues>
            1.4520443563357556e-14 -1.</leafValues></_>
        <_>
          <internalNodes>
            0 -1 292 1.1226069182157516e-03</internalNodes>
          <leafValues>
            -1.4084705251334474e-14 1.</leafValues></_>
        <_>
          <internalNodes>
            0 -1 292 8.3934364374727011e-04</internalNodes>
          <leafValues>
            1.4333832040682067e-14 -1.</leafValues></_>
        <_>
          <internalNodes>
            0 -1 292 1.1226069182157516e-03</internalNodes>
          <leafValues>
            -1.4170883230421073e-14 1.</leafValues></_>
        <_>
          <internalNodes>
            0 -1 292 8.3934364374727011e-04</internalNodes>
          <leafValues>
            1.4389014543129790e-14 -1.</leafValues></_>
        <_>
          <internalNodes>
            0 -1 292 1.1226069182157516e-03</internalNodes>
          <leafValues>
            -1.4188578595722163e-14 1.</leafValues></_>
        <_>
          <internalNodes>
            0 -1 292 8.3934364374727011e-04</internalNodes>
          <leafValues>
            1.2614715146758420e-14 -1.</leafValues></_>
        <_>
          <internalNodes>
            0 -1 292 1.1226069182157516e-03</internalNodes>
          <leafValues>
            -1.3718736196143781e-14 1.</leafValues></_>
        <_>
          <internalNodes>
            0 -1 292 8.3934364374727011e-04</internalNodes>
          <leafValues>
            1.4522503547485278e-14 -1.</leafValues></_>
        <_>
          <internalNodes>
            0 -1 292 1.1226069182157516e-03</internalNodes>
          <leafValues>
            -1.4082636796877279e-14 1.</leafValues></_>
        <_>
          <internalNodes>
            0 -1 292 8.3934364374727011e-04</internalNodes>
          <leafValues>
            1.4341387574571575e-14 -1.</leafValues></_>
        <_>
          <internalNodes>
            0 -1 292 1.1226069182157516e-03</internalNodes>
          <leafValues>
            -1.4166516775577977e-14 1.</leafValues></_>
        <_>
          <internalNodes>
            0 -1 292 8.3934364374727011e-04</internalNodes>
          <leafValues>
            1.4389700639817066e-14 -1.</leafValues></_>
        <_>
          <internalNodes>
            0 -1 292 1.1226069182157516e-03</internalNodes>
          <leafValues>
            -1.4176858200831005e-14 1.</leafValues></_>
        <_>
          <internalNodes>
            0 -1 292 8.3934364374727011e-04</internalNodes>
          <leafValues>
            1.2615402090478643e-14 -1.</leafValues></_>
        <_>
          <internalNodes>
            0 -1 292 1.1226069182157516e-03</internalNodes>
          <leafValues>
            -1.3718505803182127e-14 1.</leafValues></_>
        <_>
          <internalNodes>
            0 -1 292 8.3934364374727011e-04</internalNodes>
          <leafValues>
            1.4546545730660145e-14 -1.</leafValues></_>
        <_>
          <internalNodes>
            0 -1 292 1.1226069182157516e-03</internalNodes>
          <leafValues>
            -1.4199609505794256e-14 1.</leafValues></_>
        <_>
          <internalNodes>
            0 -1 292 8.3934364374727011e-04</internalNodes>
          <leafValues>
            1.4345737935788673e-14 -1.</leafValues></_>
        <_>
          <internalNodes>
            0 -1 292 1.1226069182157516e-03</internalNodes>
          <leafValues>
            -1.4165827290758912e-14 1.</leafValues></_>
        <_>
          <internalNodes>
            0 -1 292 8.3934364374727011e-04</internalNodes>
          <leafValues>
            1.4392219715802200e-14 -1.</leafValues></_>
        <_>
          <internalNodes>
            0 -1 292 1.1226069182157516e-03</internalNodes>
          <leafValues>
            -1.4286706515628626e-14 1.</leafValues></_>
        <_>
          <internalNodes>
            0 -1 292 8.3934364374727011e-04</internalNodes>
          <leafValues>
            1.4272467891785282e-14 -1.</leafValues></_>
        <_>
          <internalNodes>
            0 -1 292 1.1226069182157516e-03</internalNodes>
          <leafValues>
            -1.4227990191724958e-14 1.</leafValues></_>
        <_>
          <internalNodes>
            0 -1 292 8.3934364374727011e-04</internalNodes>
          <leafValues>
            1.4330282972633071e-14 -1.</leafValues></_>
        <_>
          <internalNodes>
            0 -1 292 1.1226069182157516e-03</internalNodes>
          <leafValues>
            -1.4294634744014927e-14 1.</leafValues></_>
        <_>
          <internalNodes>
            0 -1 292 8.3934364374727011e-04</internalNodes>
          <leafValues>
            1.4271437899721420e-14 -1.</leafValues></_>
        <_>
          <internalNodes>
            0 -1 292 1.1226069182157516e-03</internalNodes>
          <leafValues>
            -1.4235918420111258e-14 1.</leafValues></_>
        <_>
          <internalNodes>
            0 -1 292 8.3934364374727011e-04</internalNodes>
          <leafValues>
            1.2556557017566992e-14 -1.</leafValues></_>
        <_>
          <internalNodes>
            0 -1 292 1.1226069182157516e-03</internalNodes>
          <leafValues>
            -1.3716897287615291e-14 1.</leafValues></_>
        <_>
          <internalNodes>
            0 -1 292 8.3934364374727011e-04</internalNodes>
          <leafValues>
            1.4546317031764386e-14 -1.</leafValues></_></weakClassifiers></_>
    <!-- stage 12 -->
    <_>
      <maxWeakCount>100</maxWeakCount>
      <stageThreshold>-3.4313788414001465e+00</stageThreshold>
      <weakClassifiers>
        <_>
          <internalNodes>
            0 -1 342 -3.4807417541742325e-03</internalNodes>
          <leafValues>
            6.0975611209869385e-01 -9.6603399515151978e-01</leafValues></_>
        <_>
          <internalNodes>
            0 -1 46 -4.3569697299972177e-04</internalNodes>
          <leafValues>
            5.9109580516815186e-01 -8.9614826440811157e-01</leafValues></_>
        <_>
          <internalNodes>
            0 -1 208 9.8835495009552687e-05</internalNodes>
          <leafValues>
            -7.5611960887908936e-01 7.2295510768890381e-01</leafValues></_>
        <_>
          <internalNodes>
            0 -1 152 5.3470739658223465e-05</internalNodes>
          <leafValues>
            -4.9622276425361633e-01 6.2674689292907715e-01</leafValues></_>
        <_>
          <internalNodes>
            0 -1 321 1.0334454709663987e-03</internalNodes>
          <leafValues>
            -2.3516191542148590e-01 9.2662072181701660e-01</leafValues></_>
        <_>
          <internalNodes>
            0 -1 237 -9.6724601462483406e-03</internalNodes>
          <leafValues>
            9.8506009578704834e-01 -1.0419505089521408e-01</leafValues></_>
        <_>
          <internalNodes>
            0 -1 69 -3.4256526851095259e-04</internalNodes>
          <leafValues>
            -8.0839496850967407e-01 2.3381879925727844e-01</leafValues></_>
        <_>
          <internalNodes>
            0 -1 381 4.8123202286660671e-03</internalNodes>
          <leafValues>
            -1.6631619632244110e-01 9.6649652719497681e-01</leafValues></_>
        <_>
          <internalNodes>
            0 -1 156 1.5170704573392868e-02</internalNodes>
          <leafValues>
            -8.6974889039993286e-02 8.4713143110275269e-01</leafValues></_>
        <_>
          <internalNodes>
            0 -1 383 -2.2400112356990576e-04</internalNodes>
          <leafValues>
            -7.5740081071853638e-01 1.4067061245441437e-01</leafValues></_>
        <_>
          <internalNodes>
            0 -1 97 4.1570462286472321e-02</internalNodes>
          <leafValues>
            -1.0552567988634109e-01 8.8093179464340210e-01</leafValues></_>
        <_>
          <internalNodes>
            0 -1 272 -1.3771923840977252e-04</internalNodes>
          <leafValues>
            -9.4035959243774414e-01 8.4971621632575989e-02</leafValues></_>
        <_>
          <internalNodes>
            0 -1 47 -5.7149562053382397e-04</internalNodes>
          <leafValues>
            8.1150865554809570e-01 -1.0989584773778915e-01</leafValues></_>
        <_>
          <internalNodes>
            0 -1 93 -1.9085977692157030e-03</internalNodes>
          <leafValues>
            -7.4791318178176880e-01 8.5800118744373322e-02</leafValues></_>
        <_>
          <internalNodes>
            0 -1 315 -2.5726251769810915e-03</internalNodes>
          <leafValues>
            9.2514342069625854e-01 -7.1553841233253479e-02</leafValues></_>
        <_>
          <internalNodes>
            0 -1 378 3.5725268389796838e-05</internalNodes>
          <leafValues>
            5.9947505593299866e-02 -8.6080473661422729e-01</leafValues></_>
        <_>
          <internalNodes>
            0 -1 340 -1.3339597731828690e-02</internalNodes>
          <leafValues>
            9.1278946399688721e-01 -5.1803458482027054e-02</leafValues></_>
        <_>
          <internalNodes>
            0 -1 55 1.4203983300831169e-04</internalNodes>
          <leafValues>
            4.1135873645544052e-02 -9.1657811403274536e-01</leafValues></_>
        <_>
          <internalNodes>
            0 -1 118 4.2159492149949074e-03</internalNodes>
          <leafValues>
            -4.8526398837566376e-02 7.7906745672225952e-01</leafValues></_>
        <_>
          <internalNodes>
            0 -1 382 -7.4542587390169501e-04</internalNodes>
          <leafValues>
            -7.4557608366012573e-01 3.3113747835159302e-02</leafValues></_>
        <_>
          <internalNodes>
            0 -1 137 7.6278168708086014e-03</internalNodes>
          <leafValues>
            -2.4724744260311127e-02 9.5544707775115967e-01</leafValues></_>
        <_>
          <internalNodes>
            0 -1 370 1.5770406753290445e-04</internalNodes>
          <leafValues>
            2.4010308086872101e-02 -8.4112143516540527e-01</leafValues></_>
        <_>
          <internalNodes>
            0 -1 114 9.2592416331171989e-03</internalNodes>
          <leafValues>
            -1.7999723553657532e-02 1.</leafValues></_>
        <_>
          <internalNodes>
            0 -1 124 -3.5749781090999022e-05</internalNodes>
          <leafValues>
            -1. 1.0786972939968109e-02</leafValues></_>
        <_>
          <internalNodes>
            0 -1 72 -8.9151114225387573e-03</internalNodes>
          <leafValues>
            1. -1.1749057099223137e-02</leafValues></_>
        <_>
          <internalNodes>
            0 -1 277 8.9549794793128967e-03</internalNodes>
          <leafValues>
            1.1859919875860214e-02 -9.1944295167922974e-01</leafValues></_>
        <_>
          <internalNodes>
            0 -1 212 5.4864631965756416e-04</internalNodes>
          <leafValues>
            -9.2156790196895599e-03 1.</leafValues></_>
        <_>
          <internalNodes>
            0 -1 280 4.0919889579527080e-04</internalNodes>
          <leafValues>
            5.7230917736887932e-03 -1.</leafValues></_>
        <_>
          <internalNodes>
            0 -1 242 1.7157701950054616e-04</internalNodes>
          <leafValues>
            -3.2934050541371107e-03 1.</leafValues></_>
        <_>
          <internalNodes>
            0 -1 282 9.5001632871571928e-05</internalNodes>
          <leafValues>
            2.3268859367817640e-03 -1.</leafValues></_>
        <_>
          <internalNodes>
            0 -1 13 -3.3518386771902442e-04</internalNodes>
          <leafValues>
            1. -2.0295679569244385e-03</leafValues></_>
        <_>
          <internalNodes>
            0 -1 1 -1.2527041137218475e-02</internalNodes>
          <leafValues>
            -1. 6.1198684852570295e-04</leafValues></_>
        <_>
          <internalNodes>
            0 -1 317 -2.4343233963008970e-04</internalNodes>
          <leafValues>
            1. -3.1055863946676254e-03</leafValues></_>
        <_>
          <internalNodes>
            0 -1 32 -3.0416782828979194e-04</internalNodes>
          <leafValues>
            -1. 1.1701718904078007e-03</leafValues></_>
        <_>
          <internalNodes>
            0 -1 4 -5.9104681713506579e-04</internalNodes>
          <leafValues>
            1. -7.3091109516099095e-04</leafValues></_>
        <_>
          <internalNodes>
            0 -1 4 -3.4842058084905148e-04</internalNodes>
          <leafValues>
            -1. -1.3016455968628549e-10</leafValues></_>
        <_>
          <internalNodes>
            0 -1 4 -5.9104681713506579e-04</internalNodes>
          <leafValues>
            1. 8.4094167922071049e-15</leafValues></_>
        <_>
          <internalNodes>
            0 -1 4 -3.4842058084905148e-04</internalNodes>
          <leafValues>
            -1. -1.1224936521188507e-14</leafValues></_>
        <_>
          <internalNodes>
            0 -1 4 -5.9104681713506579e-04</internalNodes>
          <leafValues>
            1. 9.3498850968400798e-15</leafValues></_>
        <_>
          <internalNodes>
            0 -1 4 -3.4842058084905148e-04</internalNodes>
          <leafValues>
            -1. -1.6425820461283581e-14</leafValues></_>
        <_>
          <internalNodes>
            0 -1 4 -5.9104681713506579e-04</internalNodes>
          <leafValues>
            1. 1.7974458422045144e-15</leafValues></_>
        <_>
          <internalNodes>
            0 -1 4 -3.4842058084905148e-04</internalNodes>
          <leafValues>
            -1. 1.3908706204455133e-14</leafValues></_>
        <_>
          <internalNodes>
            0 -1 4 -5.9104681713506579e-04</internalNodes>
          <leafValues>
            1. -1.7686927158869041e-14</leafValues></_>
        <_>
          <internalNodes>
            0 -1 4 -3.4842058084905148e-04</internalNodes>
          <leafValues>
            -1. 1.9430724051776836e-14</leafValues></_>
        <_>
          <internalNodes>
            0 -1 4 -5.9104681713506579e-04</internalNodes>
          <leafValues>
            1. -1.9466911416865908e-15</leafValues></_>
        <_>
          <internalNodes>
            0 -1 4 -3.4842058084905148e-04</internalNodes>
          <leafValues>
            -1. -1.3946776100269478e-14</leafValues></_>
        <_>
          <internalNodes>
            0 -1 4 -5.9104681713506579e-04</internalNodes>
          <leafValues>
            1. 9.5909752375841241e-16</leafValues></_>
        <_>
          <internalNodes>
            0 -1 4 -3.4842058084905148e-04</internalNodes>
          <leafValues>
            -1. -1.8762444702546347e-15</leafValues></_>
        <_>
          <internalNodes>
            0 -1 4 -5.9104681713506579e-04</internalNodes>
          <leafValues>
            1. 1.5197201765329620e-16</leafValues></_>
        <_>
          <internalNodes>
            0 -1 4 -3.4842058084905148e-04</internalNodes>
          <leafValues>
            -1. 5.4589808083540907e-15</leafValues></_>
        <_>
          <internalNodes>
            0 -1 4 -5.9104681713506579e-04</internalNodes>
          <leafValues>
            1. -4.6353725572561080e-15</leafValues></_>
        <_>
          <internalNodes>
            0 -1 4 -3.4842058084905148e-04</internalNodes>
          <leafValues>
            -1. 8.8760074323009780e-16</leafValues></_>
        <_>
          <internalNodes>
            0 -1 4 -5.9104681713506579e-04</internalNodes>
          <leafValues>
            1. 1.2646241713055225e-14</leafValues></_>
        <_>
          <internalNodes>
            0 -1 4 -3.4842058084905148e-04</internalNodes>
          <leafValues>
            -1. -4.1281404293200263e-15</leafValues></_>
        <_>
          <internalNodes>
            0 -1 4 -5.9104681713506579e-04</internalNodes>
          <leafValues>
            1. 2.4627604702404950e-16</leafValues></_>
        <_>
          <internalNodes>
            0 -1 4 -3.4842058084905148e-04</internalNodes>
          <leafValues>
            -1. 7.1358332993085895e-15</leafValues></_>
        <_>
          <internalNodes>
            0 -1 4 -5.9104681713506579e-04</internalNodes>
          <leafValues>
            1. -1.6533739023269121e-15</leafValues></_>
        <_>
          <internalNodes>
            0 -1 4 -3.4842058084905148e-04</internalNodes>
          <leafValues>
            -1. 2.6210377879182624e-15</leafValues></_>
        <_>
          <internalNodes>
            0 -1 4 -5.9104681713506579e-04</internalNodes>
          <leafValues>
            1. -1.5023743764352483e-14</leafValues></_>
        <_>
          <internalNodes>
            0 -1 4 -3.4842058084905148e-04</internalNodes>
          <leafValues>
            -1. 1.1380509368544810e-14</leafValues></_>
        <_>
          <internalNodes>
            0 -1 4 -5.9104681713506579e-04</internalNodes>
          <leafValues>
            1. -3.2230728079263608e-15</leafValues></_>
        <_>
          <internalNodes>
            0 -1 4 -3.4842058084905148e-04</internalNodes>
          <leafValues>
            -1. -1.2172007447645329e-14</leafValues></_>
        <_>
          <internalNodes>
            0 -1 4 -5.9104681713506579e-04</internalNodes>
          <leafValues>
            1. 1.5479206932618277e-14</leafValues></_>
        <_>
          <internalNodes>
            0 -1 4 -3.4842058084905148e-04</internalNodes>
          <leafValues>
            -1. 2.5869080776163081e-15</leafValues></_>
        <_>
          <internalNodes>
            0 -1 4 -5.9104681713506579e-04</internalNodes>
          <leafValues>
            1. -2.0342763389601115e-14</leafValues></_>
        <_>
          <internalNodes>
            0 -1 4 -3.4842058084905148e-04</internalNodes>
          <leafValues>
            -1. 2.5507573467022050e-15</leafValues></_>
        <_>
          <internalNodes>
            0 -1 4 -5.9104681713506579e-04</internalNodes>
          <leafValues>
            1. -1.6635506855508173e-15</leafValues></_>
        <_>
          <internalNodes>
            0 -1 4 -3.4842058084905148e-04</internalNodes>
          <leafValues>
            -1. 2.5972367973751270e-15</leafValues></_>
        <_>
          <internalNodes>
            0 -1 4 -5.9104681713506579e-04</internalNodes>
          <leafValues>
            1. 1.3916293078563690e-14</leafValues></_>
        <_>
          <internalNodes>
            0 -1 4 -3.4842058084905148e-04</internalNodes>
          <leafValues>
            -1. -1.9813501628772844e-14</leafValues></_>
        <_>
          <internalNodes>
            0 -1 4 -5.9104681713506579e-04</internalNodes>
          <leafValues>
            1. 8.3910251658233723e-15</leafValues></_>
        <_>
          <internalNodes>
            0 -1 4 -3.4842058084905148e-04</internalNodes>
          <leafValues>
            -1. -3.6301138554547044e-15</leafValues></_>
        <_>
          <internalNodes>
            0 -1 4 -5.9104681713506579e-04</internalNodes>
          <leafValues>
            1. 4.5770259632339164e-15</leafValues></_>
