<?xml version="1.0"?>
<opencv_storage>
<cascade>
  <stageType>BOOST</stageType>
  <featureType>HAAR</featureType>
  <height>32</height>
  <width>32</width>
  <stageParams>
    <boostType>GAB</boostType>
    <minHitRate>9.9500000476837158e-01</minHitRate>
    <maxFalseAlarm>5.0000000000000000e-01</maxFalseAlarm>
    <weightTrimRate>9.4999998807907104e-01</weightTrimRate>
    <maxDepth>1</maxDepth>
    <maxWeakCount>100</maxWeakCount></stageParams>
  <featureParams>
    <maxCatCount>0</maxCatCount>
    <featSize>1</featSize>
    <mode>BASIC</mode></featureParams>
  <stageNum>10</stageNum>
  <stages>
    <!-- stage 0 -->
    <_>
      <maxWeakCount>4</maxWeakCount>
      <stageThreshold>-1.4484345912933350e+00</stageThreshold>
      <weakClassifiers>
        <_>
          <internalNodes>
            0 -1 24 -9.6890386193990707e-03</internalNodes>
          <leafValues>
            6.8000000715255737e-01 -9.5677798986434937e-01</leafValues></_>
        <_>
          <internalNodes>
            0 -1 34 1.6574549954384565e-03</internalNodes>
          <leafValues>
            -8.4788960218429565e-01 6.9510686397552490e-01</leafValues></_>
        <_>
          <internalNodes>
            0 -1 7 -1.2066417373716831e-02</internalNodes>
          <leafValues>
            8.5852086544036865e-01 -5.9073925018310547e-01</leafValues></_>
        <_>
          <internalNodes>
            0 -1 33 6.4565120264887810e-03</internalNodes>
          <leafValues>
            -4.3578732013702393e-01 9.4697219133377075e-01</leafValues></_></weakClassifiers></_>
    <!-- stage 1 -->
    <_>
      <maxWeakCount>5</maxWeakCount>
      <stageThreshold>-1.4154119491577148e+00</stageThreshold>
      <weakClassifiers>
        <_>
          <internalNodes>
            0 -1 11 -7.9097010195255280e-02</internalNodes>
          <leafValues>
            7.7777779102325439e-01 -9.4731706380844116e-01</leafValues></_>
        <_>
          <internalNodes>
            0 -1 17 1.9408486783504486e-02</internalNodes>
          <leafValues>
            -8.0114233493804932e-01 8.9205092191696167e-01</leafValues></_>
        <_>
          <internalNodes>
            0 -1 3 7.8319773077964783e-02</internalNodes>
          <leafValues>
            -6.2111729383468628e-01 6.6891974210739136e-01</leafValues></_>
        <_>
          <internalNodes>
            0 -1 5 -2.0042681717313826e-04</internalNodes>
          <leafValues>
            -9.8227733373641968e-01 3.1746929883956909e-01</leafValues></_>
        <_>
          <internalNodes>
            0 -1 32 -1.0758031159639359e-02</internalNodes>
          <leafValues>
            6.3669550418853760e-01 -5.7504022121429443e-01</leafValues></_></weakClassifiers></_>
    <!-- stage 2 -->
    <_>
      <maxWeakCount>4</maxWeakCount>
      <stageThreshold>-1.8846845626831055e+00</stageThreshold>
      <weakClassifiers>
        <_>
          <internalNodes>
            0 -1 14 -4.1613545268774033e-02</internalNodes>
          <leafValues>
            6.4705884456634521e-01 -9.4346976280212402e-01</leafValues></_>
        <_>
          <internalNodes>
            0 -1 5 2.5290239136666059e-04</internalNodes>
          <leafValues>
            2.1611297130584717e-01 -9.5075052976608276e-01</leafValues></_>
        <_>
          <internalNodes>
            0 -1 18 3.7421330809593201e-02</internalNodes>
          <leafValues>
            -6.4078599214553833e-01 8.3117949962615967e-01</leafValues></_>
        <_>
          <internalNodes>
            0 -1 10 -3.0915405601263046e-02</internalNodes>
          <leafValues>
            6.5841776132583618e-01 -5.1654177904129028e-01</leafValues></_></weakClassifiers></_>
    <!-- stage 3 -->
    <_>
      <maxWeakCount>3</maxWeakCount>
      <stageThreshold>-1.4648659229278564e+00</stageThreshold>
      <weakClassifiers>
        <_>
          <internalNodes>
            0 -1 12 -3.6086015403270721e-02</internalNodes>
          <leafValues>
            8.4615385532379150e-01 -9.3980580568313599e-01</leafValues></_>
        <_>
          <internalNodes>
            0 -1 27 8.5722878575325012e-02</internalNodes>
          <leafValues>
            -8.0798542499542236e-01 4.9855729937553406e-01</leafValues></_>
        <_>
          <internalNodes>
            0 -1 4 2.4842846323736012e-04</internalNodes>
          <leafValues>
            2.8292533755302429e-01 -9.8507368564605713e-01</leafValues></_></weakClassifiers></_>
    <!-- stage 4 -->
    <_>
      <maxWeakCount>3</maxWeakCount>
      <stageThreshold>-1.4805365800857544e+00</stageThreshold>
      <weakClassifiers>
        <_>
          <internalNodes>
            0 -1 6 -5.7205185294151306e-02</internalNodes>
          <leafValues>
            8.0000001192092896e-01 -9.3417233228683472e-01</leafValues></_>
        <_>
          <internalNodes>
            0 -1 9 -1.6351500153541565e-01</internalNodes>
          <leafValues>
            7.3253321647644043e-01 -7.3321050405502319e-01</leafValues></_>
        <_>
          <internalNodes>
            0 -1 0 3.4041493199765682e-04</internalNodes>
          <leafValues>
            1.8684628605842590e-01 -1.</leafValues></_></weakClassifiers></_>
    <!-- stage 5 -->
    <_>
      <maxWeakCount>5</maxWeakCount>
      <stageThreshold>-2.0283148288726807e+00</stageThreshold>
      <weakClassifiers>
        <_>
          <internalNodes>
            0 -1 29 -7.8840339556336403e-03</internalNodes>
          <leafValues>
            6.3636362552642822e-01 -9.3410855531692505e-01</leafValues></_>
        <_>
          <internalNodes>
            0 -1 2 -8.5024796426296234e-02</internalNodes>
          <leafValues>
            4.8670232295989990e-01 -7.4099403619766235e-01</leafValues></_>
        <_>
          <internalNodes>
            0 -1 13 1.2114394921809435e-03</internalNodes>
          <leafValues>
            1.3865709304809570e-01 -1.</leafValues></_>
        <_>
          <internalNodes>
            0 -1 15 -3.8226603646762669e-04</internalNodes>
          <leafValues>
            2.9413631558418274e-01 -7.7147972583770752e-01</leafValues></_>
        <_>
          <internalNodes>
            0 -1 1 -2.6806863024830818e-04</internalNodes>
          <leafValues>
            -1. 2.7961042523384094e-01</leafValues></_></weakClassifiers></_>
    <!-- stage 6 -->
    <_>
      <maxWeakCount>4</maxWeakCount>
      <stageThreshold>-1.9440717697143555e+00</stageThreshold>
      <weakClassifiers>
        <_>
          <internalNodes>
            0 -1 20 2.6721276342868805e-02</internalNodes>
          <leafValues>
            -9.3230175971984863e-01 7.7777779102325439e-01</leafValues></_>
        <_>
          <internalNodes>
            0 -1 28 1.4579559676349163e-02</internalNodes>
          <leafValues>
            -7.2497981786727905e-01 6.7546701431274414e-01</leafValues></_>
        <_>
          <internalNodes>
            0 -1 21 -2.2003386402502656e-04</internalNodes>
          <leafValues>
            3.8093480467796326e-01 -7.6274025440216064e-01</leafValues></_>
        <_>
          <internalNodes>
            0 -1 30 1.1841880223073531e-05</internalNodes>
          <leafValues>
            -6.6715681552886963e-01 4.7595000267028809e-01</leafValues></_></weakClassifiers></_>
    <!-- stage 7 -->
    <_>
      <maxWeakCount>5</maxWeakCount>
      <stageThreshold>-1.6529036760330200e+00</stageThreshold>
      <weakClassifiers>
        <_>
          <internalNodes>
            0 -1 37 7.0581860840320587e-02</internalNodes>
          <leafValues>
            -9.3417233228683472e-01 8.0000001192092896e-01</leafValues></_>
        <_>
          <internalNodes>
            0 -1 8 1.0022884607315063e-01</internalNodes>
          <leafValues>
            -7.1576637029647827e-01 7.1398574113845825e-01</leafValues></_>
        <_>
          <internalNodes>
            0 -1 22 -5.9696467360481620e-06</internalNodes>
          <leafValues>
            3.7015005946159363e-01 -6.2393021583557129e-01</leafValues></_>
        <_>
          <internalNodes>
            0 -1 35 -2.2794594406150281e-04</internalNodes>
          <leafValues>
            -9.9518841505050659e-01 2.1745233237743378e-01</leafValues></_>
        <_>
          <internalNodes>
            0 -1 25 1.7525214934721589e-04</internalNodes>
          <leafValues>
            -5.9056740999221802e-01 4.2163655161857605e-01</leafValues></_></weakClassifiers></_>
    <!-- stage 8 -->
    <_>
      <maxWeakCount>3</maxWeakCount>
      <stageThreshold>-1.6875314712524414e+00</stageThreshold>
      <weakClassifiers>
        <_>
          <internalNodes>
            0 -1 23 -2.9666256159543991e-02</internalNodes>
          <leafValues>
            1. -9.3236714601516724e-01</leafValues></_>
        <_>
          <internalNodes>
            0 -1 16 -2.7637902647256851e-02</internalNodes>
          <leafValues>
            -2.9018566012382507e-02 -8.5553628206253052e-01</leafValues></_>
        <_>
          <internalNodes>
            0 -1 36 -1.8700421787798405e-04</internalNodes>
          <leafValues>
            2.5641253590583801e-01 -7.2614574432373047e-01</leafValues></_></weakClassifiers></_>
    <!-- stage 9 -->
    <_>
      <maxWeakCount>6</maxWeakCount>
      <stageThreshold>-2.1690354347229004e+00</stageThreshold>
      <weakClassifiers>
        <_>
          <internalNodes>
            0 -1 19 5.0217367708683014e-02</internalNodes>
          <leafValues>
            -9.3043476343154907e-01 7.5000000000000000e-01</leafValues></_>
        <_>
          <internalNodes>
            0 -1 35 5.7260034373030066e-04</internalNodes>
          <leafValues>
            -1.3558557629585266e-01 -9.1970205307006836e-01</leafValues></_>
        <_>
          <internalNodes>
            0 -1 38 2.3603893350809813e-04</internalNodes>
          <leafValues>
            8.6038678884506226e-02 -9.2694514989852905e-01</leafValues></_>
        <_>
          <internalNodes>
            0 -1 39 -1.0016306769102812e-03</internalNodes>
          <leafValues>
            -8.6539500951766968e-01 2.2779233753681183e-01</leafValues></_>
        <_>
          <internalNodes>
            0 -1 26 -1.5856569007155485e-05</internalNodes>
          <leafValues>
            -9.5572942495346069e-01 2.1246464550495148e-01</leafValues></_>
        <_>
          <internalNodes>
            0 -1 31 -1.5535694546997547e-04</internalNodes>
          <leafValues>
            -9.2744296789169312e-01 2.4799318611621857e-01</leafValues></_></weakClassifiers></_></stages>
  <features>
    <_>
      <rects>
        <_>
          0 7 1 9 -1.</_>
        <_>
          0 10 1 3 3.</_></rects>
      <tilted>0</tilted></_>
    <_>
      <rects>
        <_>
          0 8 2 4 -1.</_>
        <_>
          0 10 2 2 2.</_></rects>
      <tilted>0</tilted></_>
    <_>
      <rects>
        <_>
          0 8 10 19 -1.</_>
        <_>
          5 8 5 19 2.</_></rects>
      <tilted>0</tilted></_>
    <_>
      <rects>
        <_>
          0 8 24 19 -1.</_>
        <_>
          8 8 8 19 3.</_></rects>
      <tilted>0</tilted></_>
    <_>
      <rects>
        <_>
          0 9 1 8 -1.</_>
        <_>
          0 13 1 4 2.</_></rects>
      <tilted>0</tilted></_>
    <_>
      <rects>
        <_>
          0 9 1 12 -1.</_>
        <_>
          0 13 1 4 3.</_></rects>
      <tilted>0</tilted></_>
    <_>
      <rects>
        <_>
          0 10 6 11 -1.</_>
        <_>
          3 10 3 11 2.</_></rects>
      <tilted>0</tilted></_>
    <_>
      <rects>
        <_>
          0 16 9 3 -1.</_>
        <_>
          3 16 3 3 3.</_></rects>
      <tilted>0</tilted></_>
    <_>
      <rects>
        <_>
          0 17 24 9 -1.</_>
        <_>
          0 20 24 3 3.</_></rects>
      <tilted>0</tilted></_>
    <_>
      <rects>
        <_>
          2 5 14 22 -1.</_>
        <_>
          9 5 7 22 2.</_></rects>
      <tilted>0</tilted></_>
    <_>
      <rects>
        <_>
          3 3 12 15 -1.</_>
        <_>
          3 8 12 5 3.</_></rects>
      <tilted>0</tilted></_>
    <_>
      <rects>
        <_>
          3 7 15 10 -1.</_>
        <_>
          8 7 5 10 3.</_></rects>
      <tilted>0</tilted></_>
    <_>
      <rects>
        <_>
          4 12 8 6 -1.</_>
        <_>
          8 12 4 6 2.</_></rects>
      <tilted>0</tilted></_>
    <_>
      <rects>
        <_>
          5 1 22 3 -1.</_>
        <_>
          16 1 11 3 2.</_></rects>
      <tilted>0</tilted></_>
    <_>
      <rects>
        <_>
          5 3 8 8 -1.</_>
        <_>
          5 7 8 4 2.</_></rects>
      <tilted>0</tilted></_>
    <_>
      <rects>
        <_>
          5 15 16 2 -1.</_>
        <_>
          5 16 16 1 2.</_></rects>
      <tilted>0</tilted></_>
    <_>
      <rects>
        <_>
          6 6 7 15 -1.</_>
        <_>
          6 11 7 5 3.</_></rects>
      <tilted>0</tilted></_>
    <_>
      <rects>
        <_>
          6 18 19 3 -1.</_>
        <_>
          6 19 19 1 3.</_></rects>
      <tilted>0</tilted></_>
    <_>
      <rects>
        <_>
          7 4 7 12 -1.</_>
        <_>
          7 8 7 4 3.</_></rects>
      <tilted>0</tilted></_>
    <_>
      <rects>
        <_>
          8 1 9 6 -1.</_>
        <_>
          8 3 9 2 3.</_></rects>
      <tilted>0</tilted></_>
    <_>
      <rects>
        <_>
          8 5 15 3 -1.</_>
        <_>
          8 6 15 1 3.</_></rects>
      <tilted>0</tilted></_>
    <_>
      <rects>
        <_>
          8 15 10 2 -1.</_>
        <_>
          8 16 10 1 2.</_></rects>
      <tilted>0</tilted></_>
    <_>
      <rects>
        <_>
          8 21 2 2 -1.</_>
        <_>
          9 21 1 2 2.</_></rects>
      <tilted>0</tilted></_>
    <_>
      <rects>
        <_>
          9 19 16 3 -1.</_>
        <_>
          9 20 16 1 3.</_></rects>
      <tilted>0</tilted></_>
    <_>
      <rects>
        <_>
          10 10 6 4 -1.</_>
        <_>
          12 10 2 4 3.</_></rects>
      <tilted>0</tilted></_>
    <_>
      <rects>
        <_>
          10 15 2 6 -1.</_>
        <_>
          11 15 1 6 2.</_></rects>
      <tilted>0</tilted></_>
    <_>
      <rects>
        <_>
          11 31 9 1 -1.</_>
        <_>
          14 31 3 1 3.</_></rects>
      <tilted>0</tilted></_>
    <_>
      <rects>
        <_>
          12 2 18 15 -1.</_>
        <_>
          12 7 18 5 3.</_></rects>
      <tilted>0</tilted></_>
    <_>
      <rects>
        <_>
          12 6 9 3 -1.</_>
        <_>
          12 7 9 1 3.</_></rects>
      <tilted>0</tilted></_>
    <_>
      <rects>
        <_>
          13 7 5 2 -1.</_>
        <_>
          13 8 5 1 2.</_></rects>
      <tilted>0</tilted></_>
    <_>
      <rects>
        <_>
          13 18 2 9 -1.</_>
        <_>
          14 18 1 9 2.</_></rects>
      <tilted>0</tilted></_>
    <_>
      <rects>
        <_>
          16 30 6 2 -1.</_>
        <_>
          18 30 2 2 3.</_></rects>
      <tilted>0</tilted></_>
    <_>
      <rects>
        <_>
          17 11 3 12 -1.</_>
        <_>
          17 15 3 4 3.</_></rects>
      <tilted>0</tilted></_>
    <_>
      <rects>
        <_>
          17 16 10 1 -1.</_>
        <_>
          22 16 5 1 2.</_></rects>
      <tilted>0</tilted></_>
    <_>
      <rects>
        <_>
          19 11 1 3 -1.</_>
        <_>
          19 12 1 1 3.</_></rects>
      <tilted>0</tilted></_>
    <_>
      <rects>
        <_>
          22 0 9 2 -1.</_>
        <_>
          25 0 3 2 3.</_></rects>
      <tilted>0</tilted></_>
    <_>
      <rects>
        <_>
          22 12 2 11 -1.</_>
        <_>
          23 12 1 11 2.</_></rects>
      <tilted>0</tilted></_>
    <_>
      <rects>
        <_>
          26 8 6 21 -1.</_>
        <_>
          29 8 3 21 2.</_></rects>
      <tilted>0</tilted></_>
    <_>
      <rects>
        <_>
          31 12 1 20 -1.</_>
        <_>
          31 22 1 10 2.</_></rects>
      <tilted>0</tilted></_>
    <_>
      <rects>
        <_>
          31 14 1 14 -1.</_>
        <_>
          31 21 1 7 2.</_></rects>
      <tilted>0</tilted></_></features></cascade>
</opencv_storage>
