<?xml version="1.0"?>
<opencv_storage>
<cascade>
  <stageType>BOOST</stageType>
  <featureType>HAAR</featureType>
  <height>32</height>
  <width>32</width>
  <stageParams>
    <boostType>GAB</boostType>
    <minHitRate>9.9500000476837158e-01</minHitRate>
    <maxFalseAlarm>5.0000000000000000e-01</maxFalseAlarm>
    <weightTrimRate>9.4999998807907104e-01</weightTrimRate>
    <maxDepth>1</maxDepth>
    <maxWeakCount>100</maxWeakCount></stageParams>
  <featureParams>
    <maxCatCount>0</maxCatCount>
    <featSize>1</featSize>
    <mode>BASIC</mode></featureParams>
  <stageNum>10</stageNum>
  <stages>
    <!-- stage 0 -->
    <_>
      <maxWeakCount>3</maxWeakCount>
      <stageThreshold>-1.2726244926452637e+00</stageThreshold>
      <weakClassifiers>
        <_>
          <internalNodes>
            0 -1 24 -1.6429457813501358e-02</internalNodes>
          <leafValues>
            7.1428573131561279e-01 -9.5878314971923828e-01</leafValues></_>
        <_>
          <internalNodes>
            0 -1 28 -3.6017894744873047e-02</internalNodes>
          <leafValues>
            5.9171462059020996e-01 -8.7677425146102905e-01</leafValues></_>
        <_>
          <internalNodes>
            0 -1 32 4.4541577808558941e-03</internalNodes>
          <leafValues>
            -8.1501084566116333e-01 5.6293284893035889e-01</leafValues></_></weakClassifiers></_>
    <!-- stage 1 -->
    <_>
      <maxWeakCount>4</maxWeakCount>
      <stageThreshold>-1.8028126955032349e+00</stageThreshold>
      <weakClassifiers>
        <_>
          <internalNodes>
            0 -1 13 1.5639211982488632e-02</internalNodes>
          <leafValues>
            -9.5121949911117554e-01 1.</leafValues></_>
        <_>
          <internalNodes>
            0 -1 12 -7.5261920690536499e-02</internalNodes>
          <leafValues>
            7.0019984245300293e-01 -8.2637232542037964e-01</leafValues></_>
        <_>
          <internalNodes>
            0 -1 3 1.5586709603667259e-02</internalNodes>
          <leafValues>
            -6.5131860971450806e-01 5.8763235807418823e-01</leafValues></_>
        <_>
          <internalNodes>
            0 -1 16 8.1811100244522095e-03</internalNodes>
          <leafValues>
            -6.0682362318038940e-01 6.2609767913818359e-01</leafValues></_></weakClassifiers></_>
    <!-- stage 2 -->
    <_>
      <maxWeakCount>4</maxWeakCount>
      <stageThreshold>-1.8092133998870850e+00</stageThreshold>
      <weakClassifiers>
        <_>
          <internalNodes>
            0 -1 35 1.5703829005360603e-02</internalNodes>
          <leafValues>
            -9.5866143703460693e-01 4.1176471114158630e-01</leafValues></_>
        <_>
          <internalNodes>
            0 -1 1 -1.2252504006028175e-02</internalNodes>
          <leafValues>
            3.8841000199317932e-01 -8.6887717247009277e-01</leafValues></_>
        <_>
          <internalNodes>
            0 -1 8 -3.1101092696189880e-02</internalNodes>
          <leafValues>
            6.3899064064025879e-01 -6.7382746934890747e-01</leafValues></_>
        <_>
          <internalNodes>
            0 -1 33 -3.1981155276298523e-02</internalNodes>
          <leafValues>
            7.1439999341964722e-01 -5.6513458490371704e-01</leafValues></_></weakClassifiers></_>
    <!-- stage 3 -->
    <_>
      <maxWeakCount>4</maxWeakCount>
      <stageThreshold>-1.8246808052062988e+00</stageThreshold>
      <weakClassifiers>
        <_>
          <internalNodes>
            0 -1 34 2.4187941104173660e-02</internalNodes>
          <leafValues>
            -9.5102840662002563e-01 3.3333334326744080e-01</leafValues></_>
        <_>
          <internalNodes>
            0 -1 6 -3.5975974053144455e-02</internalNodes>
          <leafValues>
            2.6215758919715881e-01 -8.3660537004470825e-01</leafValues></_>
        <_>
          <internalNodes>
            0 -1 0 9.5467068254947662e-02</internalNodes>
          <leafValues>
            -6.0422104597091675e-01 6.3348358869552612e-01</leafValues></_>
        <_>
          <internalNodes>
            0 -1 36 1.6414482146501541e-02</internalNodes>
          <leafValues>
            -5.3158897161483765e-01 6.4689242839813232e-01</leafValues></_></weakClassifiers></_>
    <!-- stage 4 -->
    <_>
      <maxWeakCount>4</maxWeakCount>
      <stageThreshold>-1.8642227649688721e+00</stageThreshold>
      <weakClassifiers>
        <_>
          <internalNodes>
            0 -1 14 -1.8535514175891876e-01</internalNodes>
          <leafValues>
            1. -9.6078431606292725e-01</leafValues></_>
        <_>
          <internalNodes>
            0 -1 5 -9.3110434710979462e-02</internalNodes>
          <leafValues>
            5.3467226028442383e-01 -9.1899126768112183e-01</leafValues></_>
        <_>
          <internalNodes>
            0 -1 7 -7.5197026133537292e-02</internalNodes>
          <leafValues>
            7.6921683549880981e-01 -6.7333525419235229e-01</leafValues></_>
        <_>
          <internalNodes>
            0 -1 22 -6.1812601983547211e-02</internalNodes>
          <leafValues>
            6.8888807296752930e-01 -5.0587218999862671e-01</leafValues></_></weakClassifiers></_>
    <!-- stage 5 -->
    <_>
      <maxWeakCount>5</maxWeakCount>
      <stageThreshold>-2.0421941280364990e+00</stageThreshold>
      <weakClassifiers>
        <_>
          <internalNodes>
            0 -1 20 -3.7685990333557129e-02</internalNodes>
          <leafValues>
            2.0000000298023224e-01 -9.5284873247146606e-01</leafValues></_>
        <_>
          <internalNodes>
            0 -1 19 1.3745396863669157e-03</internalNodes>
          <leafValues>
            -8.1651997566223145e-01 2.8578186035156250e-01</leafValues></_>
        <_>
          <internalNodes>
            0 -1 39 -2.3546665033791214e-05</internalNodes>
          <leafValues>
            -7.6135504245758057e-01 2.0778648555278778e-01</leafValues></_>
        <_>
          <internalNodes>
            0 -1 29 5.4950546473264694e-04</internalNodes>
          <leafValues>
            -7.0375800132751465e-01 2.9407414793968201e-01</leafValues></_>
        <_>
          <internalNodes>
            0 -1 37 9.3901122454553843e-05</internalNodes>
          <leafValues>
            2.2314615547657013e-01 -1.</leafValues></_></weakClassifiers></_>
    <!-- stage 6 -->
    <_>
      <maxWeakCount>4</maxWeakCount>
      <stageThreshold>-1.8342009782791138e+00</stageThreshold>
      <weakClassifiers>
        <_>
          <internalNodes>
            0 -1 4 8.1289075314998627e-03</internalNodes>
          <leafValues>
            -9.4547224044799805e-01 6.6666668653488159e-01</leafValues></_>
        <_>
          <internalNodes>
            0 -1 11 -2.0736396312713623e-02</internalNodes>
          <leafValues>
            5.4326319694519043e-01 -7.7529889345169067e-01</leafValues></_>
        <_>
          <internalNodes>
            0 -1 10 -4.6837227419018745e-03</internalNodes>
          <leafValues>
            6.3541120290756226e-01 -5.0509291887283325e-01</leafValues></_>
        <_>
          <internalNodes>
            0 -1 30 -1.0124698746949434e-04</internalNodes>
          <leafValues>
            3.9166307449340820e-01 -7.2175943851470947e-01</leafValues></_></weakClassifiers></_>
    <!-- stage 7 -->
    <_>
      <maxWeakCount>5</maxWeakCount>
      <stageThreshold>-1.9641864299774170e+00</stageThreshold>
      <weakClassifiers>
        <_>
          <internalNodes>
            0 -1 15 -5.3511612117290497e-02</internalNodes>
          <leafValues>
            1. -9.4363456964492798e-01</leafValues></_>
        <_>
          <internalNodes>
            0 -1 27 -1.1302159167826176e-02</internalNodes>
          <leafValues>
            1.0862572491168976e-01 -7.9622048139572144e-01</leafValues></_>
        <_>
          <internalNodes>
            0 -1 9 1.4394254423677921e-02</internalNodes>
          <leafValues>
            -5.6698924303054810e-01 3.6088004708290100e-01</leafValues></_>
        <_>
          <internalNodes>
            0 -1 38 3.4981954377144575e-04</internalNodes>
          <leafValues>
            2.4795150756835938e-01 -8.8570171594619751e-01</leafValues></_>
        <_>
          <internalNodes>
            0 -1 18 1.6127394701470621e-05</internalNodes>
          <leafValues>
            -7.4790096282958984e-01 3.0049028992652893e-01</leafValues></_></weakClassifiers></_>
    <!-- stage 8 -->
    <_>
      <maxWeakCount>5</maxWeakCount>
      <stageThreshold>-2.0295679569244385e+00</stageThreshold>
      <weakClassifiers>
        <_>
          <internalNodes>
            0 -1 17 -9.8846284672617912e-03</internalNodes>
          <leafValues>
            1. -9.4363456964492798e-01</leafValues></_>
        <_>
          <internalNodes>
            0 -1 26 -9.4353975728154182e-03</internalNodes>
          <leafValues>
            2.8961184620857239e-01 -7.7971619367599487e-01</leafValues></_>
        <_>
          <internalNodes>
            0 -1 31 -6.9251720560714602e-05</internalNodes>
          <leafValues>
            2.5818750262260437e-01 -7.1502184867858887e-01</leafValues></_>
        <_>
          <internalNodes>
            0 -1 2 7.1029749233275652e-04</internalNodes>
          <leafValues>
            1.9965235888957977e-01 -1.</leafValues></_>
        <_>
          <internalNodes>
            0 -1 40 2.2867045481689274e-04</internalNodes>
          <leafValues>
            2.0915234088897705e-01 -1.</leafValues></_></weakClassifiers></_>
    <!-- stage 9 -->
    <_>
      <maxWeakCount>4</maxWeakCount>
      <stageThreshold>-1.5885168313980103e+00</stageThreshold>
      <weakClassifiers>
        <_>
          <internalNodes>
            0 -1 21 1.3986383564770222e-02</internalNodes>
          <leafValues>
            -9.4363456964492798e-01 1.</leafValues></_>
        <_>
          <internalNodes>
            0 -1 25 4.2983498133253306e-05</internalNodes>
          <leafValues>
            -8.9980393648147583e-01 -2.4242106080055237e-01</leafValues></_>
        <_>
          <internalNodes>
            0 -1 40 -2.0488136215135455e-04</internalNodes>
          <leafValues>
            -7.5346785783767700e-01 1.9905745983123779e-01</leafValues></_>
        <_>
          <internalNodes>
            0 -1 23 3.7366262404248118e-05</internalNodes>
          <leafValues>
            -6.0151869058609009e-01 4.0912428498268127e-01</leafValues></_></weakClassifiers></_></stages>
  <features>
    <_>
      <rects>
        <_>
          0 0 30 12 -1.</_>
        <_>
          10 0 10 12 3.</_></rects>
      <tilted>0</tilted></_>
    <_>
      <rects>
        <_>
          1 19 6 10 -1.</_>
        <_>
          1 19 3 5 2.</_>
        <_>
          4 24 3 5 2.</_></rects>
      <tilted>0</tilted></_>
    <_>
      <rects>
        <_>
          1 28 4 3 -1.</_>
        <_>
          3 28 2 3 2.</_></rects>
      <tilted>0</tilted></_>
    <_>
      <rects>
        <_>
          2 17 21 3 -1.</_>
        <_>
          9 17 7 3 3.</_></rects>
      <tilted>0</tilted></_>
    <_>
      <rects>
        <_>
          4 12 3 4 -1.</_>
        <_>
          5 12 1 4 3.</_></rects>
      <tilted>0</tilted></_>
    <_>
      <rects>
        <_>
          4 18 16 14 -1.</_>
        <_>
          4 25 16 7 2.</_></rects>
      <tilted>0</tilted></_>
    <_>
      <rects>
        <_>
          4 20 20 10 -1.</_>
        <_>
          4 20 10 5 2.</_>
        <_>
          14 25 10 5 2.</_></rects>
      <tilted>0</tilted></_>
    <_>
      <rects>
        <_>
          5 5 20 10 -1.</_>
        <_>
          5 10 20 5 2.</_></rects>
      <tilted>0</tilted></_>
    <_>
      <rects>
        <_>
          6 10 13 9 -1.</_>
        <_>
          6 13 13 3 3.</_></rects>
      <tilted>0</tilted></_>
    <_>
      <rects>
        <_>
          6 15 4 9 -1.</_>
        <_>
          6 18 4 3 3.</_></rects>
      <tilted>0</tilted></_>
    <_>
      <rects>
        <_>
          6 15 7 3 -1.</_>
        <_>
          6 16 7 1 3.</_></rects>
      <tilted>0</tilted></_>
    <_>
      <rects>
        <_>
          6 15 21 4 -1.</_>
        <_>
          6 17 21 2 2.</_></rects>
      <tilted>0</tilted></_>
    <_>
      <rects>
        <_>
          6 21 18 9 -1.</_>
        <_>
          6 24 18 3 3.</_></rects>
      <tilted>0</tilted></_>
    <_>
      <rects>
        <_>
          7 17 4 6 -1.</_>
        <_>
          7 19 4 2 3.</_></rects>
      <tilted>0</tilted></_>
    <_>
      <rects>
        <_>
          7 17 22 15 -1.</_>
        <_>
          7 22 22 5 3.</_></rects>
      <tilted>0</tilted></_>
    <_>
      <rects>
        <_>
          8 3 5 12 -1.</_>
        <_>
          8 7 5 4 3.</_></rects>
      <tilted>0</tilted></_>
    <_>
      <rects>
        <_>
          9 18 9 6 -1.</_>
        <_>
          9 20 9 2 3.</_></rects>
      <tilted>0</tilted></_>
    <_>
      <rects>
        <_>
          10 25 8 2 -1.</_>
        <_>
          10 25 4 1 2.</_>
        <_>
          14 26 4 1 2.</_></rects>
      <tilted>0</tilted></_>
    <_>
      <rects>
        <_>
          11 18 4 2 -1.</_>
        <_>
          11 18 2 1 2.</_>
        <_>
          13 19 2 1 2.</_></rects>
      <tilted>0</tilted></_>
    <_>
      <rects>
        <_>
          13 23 3 1 -1.</_>
        <_>
          14 23 1 1 3.</_></rects>
      <tilted>0</tilted></_>
    <_>
      <rects>
        <_>
          14 15 11 6 -1.</_>
        <_>
          14 17 11 2 3.</_></rects>
      <tilted>0</tilted></_>
    <_>
      <rects>
        <_>
          14 16 18 2 -1.</_>
        <_>
          14 16 9 1 2.</_>
        <_>
          23 17 9 1 2.</_></rects>
      <tilted>0</tilted></_>
    <_>
      <rects>
        <_>
          14 20 17 12 -1.</_>
        <_>
          14 26 17 6 2.</_></rects>
      <tilted>0</tilted></_>
    <_>
      <rects>
        <_>
          15 4 2 2 -1.</_>
        <_>
          15 4 1 1 2.</_>
        <_>
          16 5 1 1 2.</_></rects>
      <tilted>0</tilted></_>
    <_>
      <rects>
        <_>
          15 8 6 9 -1.</_>
        <_>
          17 8 2 9 3.</_></rects>
      <tilted>0</tilted></_>
    <_>
      <rects>
        <_>
          15 23 2 2 -1.</_>
        <_>
          15 24 2 1 2.</_></rects>
      <tilted>0</tilted></_>
    <_>
      <rects>
        <_>
          16 8 14 3 -1.</_>
        <_>
          16 9 14 1 3.</_></rects>
      <tilted>0</tilted></_>
    <_>
      <rects>
        <_>
          17 5 1 15 -1.</_>
        <_>
          17 10 1 5 3.</_></rects>
      <tilted>0</tilted></_>
    <_>
      <rects>
        <_>
          17 23 8 9 -1.</_>
        <_>
          17 26 8 3 3.</_></rects>
      <tilted>0</tilted></_>
    <_>
      <rects>
        <_>
          18 13 14 2 -1.</_>
        <_>
          18 13 7 1 2.</_>
        <_>
          25 14 7 1 2.</_></rects>
      <tilted>0</tilted></_>
    <_>
      <rects>
        <_>
          19 8 2 6 -1.</_>
        <_>
          19 8 1 3 2.</_>
        <_>
          20 11 1 3 2.</_></rects>
      <tilted>0</tilted></_>
    <_>
      <rects>
        <_>
          20 17 4 2 -1.</_>
        <_>
          20 18 4 1 2.</_></rects>
      <tilted>0</tilted></_>
    <_>
      <rects>
        <_>
          21 14 2 9 -1.</_>
        <_>
          21 17 2 3 3.</_></rects>
      <tilted>0</tilted></_>
    <_>
      <rects>
        <_>
          21 20 8 12 -1.</_>
        <_>
          21 24 8 4 3.</_></rects>
      <tilted>0</tilted></_>
    <_>
      <rects>
        <_>
          24 16 6 10 -1.</_>
        <_>
          24 16 3 5 2.</_>
        <_>
          27 21 3 5 2.</_></rects>
      <tilted>0</tilted></_>
    <_>
      <rects>
        <_>
          24 22 8 3 -1.</_>
        <_>
          28 22 4 3 2.</_></rects>
      <tilted>0</tilted></_>
    <_>
      <rects>
        <_>
          24 22 8 9 -1.</_>
        <_>
          28 22 4 9 2.</_></rects>
      <tilted>0</tilted></_>
    <_>
      <rects>
        <_>
          26 29 3 1 -1.</_>
        <_>
          27 29 1 1 3.</_></rects>
      <tilted>0</tilted></_>
    <_>
      <rects>
        <_>
          27 28 3 4 -1.</_>
        <_>
          28 28 1 4 3.</_></rects>
      <tilted>0</tilted></_>
    <_>
      <rects>
        <_>
          28 19 2 8 -1.</_>
        <_>
          28 23 2 4 2.</_></rects>
      <tilted>0</tilted></_>
    <_>
      <rects>
        <_>
          31 3 1 4 -1.</_>
        <_>
          31 5 1 2 2.</_></rects>
      <tilted>0</tilted></_></features></cascade>
</opencv_storage>
